digraph Tree {
node [shape=box, fontname="helvetica"] ;
edge [fontname="helvetica"] ;
0 [label="NoOfExternalRef <= 4.5\ngini = 0.5\nsamples = 176846\nvalue = [88423.0, 88423.0]"] ;
1 [label="NoOfSelfRef <= 4.5\ngini = 0.087\nsamples = 78254\nvalue = [85958.528, 4102.292]"] ;
0 -> 1 [labeldistance=2.5, labelangle=45, headlabel="True"] ;
2 [label="NoOfImage <= 20.5\ngini = 0.031\nsamples = 74749\nvalue = [85508.637, 1375.587]"] ;
1 -> 2 ;
3 [label="LineOfCode <= 276.5\ngini = 0.025\nsamples = 74364\nvalue = [85460.726, 1074.951]"] ;
2 -> 3 ;
4 [label="NoOfImage <= 2.5\ngini = 0.011\nsamples = 71923\nvalue = [83409.921, 475.425]"] ;
3 -> 4 ;
5 [label="NoOfJS <= 24.0\ngini = 0.003\nsamples = 67529\nvalue = [78729.879, 135.461]"] ;
4 -> 5 ;
6 [label="LineOfCode <= 199.5\ngini = 0.003\nsamples = 67523\nvalue = [78729.879, 130.218]"] ;
5 -> 6 ;
7 [label="LineOfCode <= 108.5\ngini = 0.002\nsamples = 66572\nvalue = [77686.364, 79.529]"] ;
6 -> 7 ;
8 [label="NoOfJS <= 8.5\ngini = 0.0\nsamples = 61880\nvalue = [72302.855, 5.244]"] ;
7 -> 8 ;
9 [label="NoOfExternalRef <= 3.5\ngini = 0.0\nsamples = 61808\nvalue = [72221.056, 3.496]"] ;
8 -> 9 ;
10 [label="NoOfJS <= 4.5\ngini = 0.0\nsamples = 61679\nvalue = [72071.482, 2.622]"] ;
9 -> 10 ;
11 [label="NoOfImage <= 1.5\ngini = 0.0\nsamples = 61098\nvalue = [71394.891, 0.874]"] ;
10 -> 11 ;
12 [label="NoOfPopup <= 0.5\ngini = 0.0\nsamples = 60507\nvalue = [70705.447, 0.0]"] ;
11 -> 12 ;
13 [label="gini = 0.0\nsamples = 60357\nvalue = [70530.164, 0.0]"] ;
12 -> 13 ;
14 [label="gini = 0.0\nsamples = 150\nvalue = [175.282, 0.0]"] ;
12 -> 14 ;
15 [label="LineOfCode <= 101.0\ngini = 0.003\nsamples = 591\nvalue = [689.444, 0.874]"] ;
11 -> 15 ;
16 [label="gini = 0.0\nsamples = 578\nvalue = [675.422, 0.0]"] ;
15 -> 16 ;
17 [label="URLCharProb <= 0.063\ngini = 0.11\nsamples = 13\nvalue = [14.023, 0.874]"] ;
15 -> 17 ;
18 [label="gini = 0.0\nsamples = 12\nvalue = [14.023, 0.0]"] ;
17 -> 18 ;
19 [label="gini = -0.0\nsamples = 1\nvalue = [0.0, 0.874]"] ;
17 -> 19 ;
20 [label="NoOfSelfRedirect <= 0.5\ngini = 0.005\nsamples = 581\nvalue = [676.59, 1.748]"] ;
10 -> 20 ;
21 [label="LineOfCode <= 103.5\ngini = 0.003\nsamples = 580\nvalue = [676.59, 0.874]"] ;
20 -> 21 ;
22 [label="gini = 0.0\nsamples = 574\nvalue = [670.748, 0.0]"] ;
21 -> 22 ;
23 [label="NoOfSelfRef <= 2.5\ngini = 0.226\nsamples = 6\nvalue = [5.843, 0.874]"] ;
21 -> 23 ;
24 [label="gini = 0.0\nsamples = 5\nvalue = [5.843, 0.0]"] ;
23 -> 24 ;
25 [label="gini = -0.0\nsamples = 1\nvalue = [0.0, 0.874]"] ;
23 -> 25 ;
26 [label="gini = -0.0\nsamples = 1\nvalue = [0.0, 0.874]"] ;
20 -> 26 ;
27 [label="LineOfCode <= 103.0\ngini = 0.012\nsamples = 129\nvalue = [149.574, 0.874]"] ;
9 -> 27 ;
28 [label="gini = 0.0\nsamples = 126\nvalue = [147.237, 0.0]"] ;
27 -> 28 ;
29 [label="LetterRatioInURL <= 0.55\ngini = 0.396\nsamples = 3\nvalue = [2.337, 0.874]"] ;
27 -> 29 ;
30 [label="gini = 0.0\nsamples = 1\nvalue = [0.0, 0.874]"] ;
29 -> 30 ;
31 [label="gini = 0.0\nsamples = 2\nvalue = [2.337, 0.0]"] ;
29 -> 31 ;
32 [label="Robots <= 0.5\ngini = 0.041\nsamples = 72\nvalue = [81.798, 1.748]"] ;
8 -> 32 ;
33 [label="NoOfEmptyRef <= 0.5\ngini = 0.021\nsamples = 71\nvalue = [81.798, 0.874]"] ;
32 -> 33 ;
34 [label="gini = 0.0\nsamples = 70\nvalue = [81.798, 0.0]"] ;
33 -> 34 ;
35 [label="gini = 0.0\nsamples = 1\nvalue = [0.0, 0.874]"] ;
33 -> 35 ;
36 [label="gini = 0.0\nsamples = 1\nvalue = [0.0, 0.874]"] ;
32 -> 36 ;
37 [label="NoOfOtherSpecialCharsInURL <= 1.5\ngini = 0.027\nsamples = 4692\nvalue = [5383.509, 74.285]"] ;
7 -> 37 ;
38 [label="NoOfJS <= 0.5\ngini = 0.298\nsamples = 344\nvalue = [309.666, 69.042]"] ;
37 -> 38 ;
39 [label="NoOfPopup <= 5.0\ngini = 0.028\nsamples = 210\nvalue = [240.721, 3.496]"] ;
38 -> 39 ;
40 [label="NoOfSelfRef <= 3.0\ngini = 0.021\nsamples = 209\nvalue = [240.721, 2.622]"] ;
39 -> 40 ;
41 [label="NoOfiFrame <= 0.5\ngini = 0.014\nsamples = 207\nvalue = [239.553, 1.748]"] ;
40 -> 41 ;
42 [label="gini = 0.0\nsamples = 196\nvalue = [229.036, 0.0]"] ;
41 -> 42 ;
43 [label="NoOfCSS <= 0.5\ngini = 0.244\nsamples = 11\nvalue = [10.517, 1.748]"] ;
41 -> 43 ;
44 [label="gini = 0.0\nsamples = 8\nvalue = [9.348, 0.0]"] ;
43 -> 44 ;
45 [label="TLDLegitimateProb <= 0.301\ngini = 0.48\nsamples = 3\nvalue = [1.169, 1.748]"] ;
43 -> 45 ;
46 [label="gini = 0.0\nsamples = 2\nvalue = [0.0, 1.748]"] ;
45 -> 46 ;
47 [label="gini = 0.0\nsamples = 1\nvalue = [1.169, 0.0]"] ;
45 -> 47 ;
48 [label="DomainLength <= 22.0\ngini = 0.49\nsamples = 2\nvalue = [1.169, 0.874]"] ;
40 -> 48 ;
49 [label="gini = 0.0\nsamples = 1\nvalue = [0.0, 0.874]"] ;
48 -> 49 ;
50 [label="gini = -0.0\nsamples = 1\nvalue = [1.169, 0.0]"] ;
48 -> 50 ;
51 [label="gini = 0.0\nsamples = 1\nvalue = [0.0, 0.874]"] ;
39 -> 51 ;
52 [label="LetterRatioInURL <= 0.519\ngini = 0.5\nsamples = 134\nvalue = [68.944, 65.546]"] ;
38 -> 52 ;
53 [label="NoOfSelfRef <= 0.5\ngini = 0.468\nsamples = 104\nvalue = [37.394, 62.924]"] ;
52 -> 53 ;
54 [label="URLLength <= 20.5\ngini = 0.494\nsamples = 54\nvalue = [30.382, 24.47]"] ;
53 -> 54 ;
55 [label="NoOfJS <= 6.0\ngini = 0.309\nsamples = 25\nvalue = [22.202, 5.244]"] ;
54 -> 55 ;
56 [label="NoOfiFrame <= 1.5\ngini = 0.189\nsamples = 22\nvalue = [22.202, 2.622]"] ;
55 -> 56 ;
57 [label="NoOfEmptyRef <= 0.5\ngini = 0.135\nsamples = 21\nvalue = [22.202, 1.748]"] ;
56 -> 57 ;
58 [label="Robots <= 0.5\ngini = 0.073\nsamples = 20\nvalue = [22.202, 0.874]"] ;
57 -> 58 ;
59 [label="gini = 0.0\nsamples = 17\nvalue = [19.865, 0.0]"] ;
58 -> 59 ;
60 [label="LetterRatioInURL <= 0.286\ngini = 0.396\nsamples = 3\nvalue = [2.337, 0.874]"] ;
58 -> 60 ;
61 [label="gini = 0.0\nsamples = 1\nvalue = [0.0, 0.874]"] ;
60 -> 61 ;
62 [label="gini = 0.0\nsamples = 2\nvalue = [2.337, 0.0]"] ;
60 -> 62 ;
63 [label="gini = -0.0\nsamples = 1\nvalue = [0.0, 0.874]"] ;
57 -> 63 ;
64 [label="gini = -0.0\nsamples = 1\nvalue = [0.0, 0.874]"] ;
56 -> 64 ;
65 [label="gini = -0.0\nsamples = 3\nvalue = [0.0, 2.622]"] ;
55 -> 65 ;
66 [label="LargestLineLength <= 178.0\ngini = 0.419\nsamples = 29\nvalue = [8.18, 19.227]"] ;
54 -> 66 ;
67 [label="gini = 0.0\nsamples = 3\nvalue = [3.506, 0.0]"] ;
66 -> 67 ;
68 [label="URLCharProb <= 0.033\ngini = 0.315\nsamples = 26\nvalue = [4.674, 19.227]"] ;
66 -> 68 ;
69 [label="gini = 0.0\nsamples = 1\nvalue = [1.169, 0.0]"] ;
68 -> 69 ;
70 [label="NoOfEmptyRef <= 2.5\ngini = 0.261\nsamples = 25\nvalue = [3.506, 19.227]"] ;
68 -> 70 ;
71 [label="NoOfJS <= 1.5\ngini = 0.193\nsamples = 24\nvalue = [2.337, 19.227]"] ;
70 -> 71 ;
72 [label="LargestLineLength <= 297.0\ngini = 0.48\nsamples = 6\nvalue = [2.337, 3.496]"] ;
71 -> 72 ;
73 [label="gini = 0.0\nsamples = 2\nvalue = [2.337, 0.0]"] ;
72 -> 73 ;
74 [label="gini = -0.0\nsamples = 4\nvalue = [0.0, 3.496]"] ;
72 -> 74 ;
75 [label="gini = 0.0\nsamples = 18\nvalue = [0.0, 15.731]"] ;
71 -> 75 ;
76 [label="gini = 0.0\nsamples = 1\nvalue = [1.169, 0.0]"] ;
70 -> 76 ;
77 [label="DegitRatioInURL <= 0.03\ngini = 0.261\nsamples = 50\nvalue = [7.011, 38.454]"] ;
53 -> 77 ;
78 [label="LargestLineLength <= 21728.0\ngini = 0.193\nsamples = 48\nvalue = [4.674, 38.454]"] ;
77 -> 78 ;
79 [label="LineOfCode <= 194.5\ngini = 0.153\nsamples = 47\nvalue = [3.506, 38.454]"] ;
78 -> 79 ;
80 [label="URLCharProb <= 0.054\ngini = 0.11\nsamples = 45\nvalue = [2.337, 37.58]"] ;
79 -> 80 ;
81 [label="URLCharProb <= 0.053\ngini = 0.4\nsamples = 9\nvalue = [2.337, 6.118]"] ;
80 -> 81 ;
82 [label="Pay <= 0.5\ngini = 0.269\nsamples = 8\nvalue = [1.169, 6.118]"] ;
81 -> 82 ;
83 [label="gini = -0.0\nsamples = 7\nvalue = [0.0, 6.118]"] ;
82 -> 83 ;
84 [label="gini = 0.0\nsamples = 1\nvalue = [1.169, 0.0]"] ;
82 -> 84 ;
85 [label="gini = 0.0\nsamples = 1\nvalue = [1.169, 0.0]"] ;
81 -> 85 ;
86 [label="gini = 0.0\nsamples = 36\nvalue = [0.0, 31.462]"] ;
80 -> 86 ;
87 [label="TLDLegitimateProb <= 0.262\ngini = 0.49\nsamples = 2\nvalue = [1.169, 0.874]"] ;
79 -> 87 ;
88 [label="gini = 0.0\nsamples = 1\nvalue = [0.0, 0.874]"] ;
87 -> 88 ;
89 [label="gini = -0.0\nsamples = 1\nvalue = [1.169, 0.0]"] ;
87 -> 89 ;
90 [label="gini = -0.0\nsamples = 1\nvalue = [1.169, 0.0]"] ;
78 -> 90 ;
91 [label="gini = -0.0\nsamples = 2\nvalue = [2.337, 0.0]"] ;
77 -> 91 ;
92 [label="URLCharProb <= 0.064\ngini = 0.142\nsamples = 30\nvalue = [31.551, 2.622]"] ;
52 -> 92 ;
93 [label="LetterRatioInURL <= 0.554\ngini = 0.099\nsamples = 29\nvalue = [31.551, 1.748]"] ;
92 -> 93 ;
94 [label="LetterRatioInURL <= 0.545\ngini = 0.396\nsamples = 6\nvalue = [4.674, 1.748]"] ;
93 -> 94 ;
95 [label="gini = 0.0\nsamples = 4\nvalue = [4.674, 0.0]"] ;
94 -> 95 ;
96 [label="gini = -0.0\nsamples = 2\nvalue = [0.0, 1.748]"] ;
94 -> 96 ;
97 [label="gini = -0.0\nsamples = 23\nvalue = [26.877, 0.0]"] ;
93 -> 97 ;
98 [label="gini = 0.0\nsamples = 1\nvalue = [0.0, 0.874]"] ;
92 -> 98 ;
99 [label="NoOfSelfRef <= 3.5\ngini = 0.002\nsamples = 4348\nvalue = [5073.844, 5.244]"] ;
37 -> 99 ;
100 [label="URLLength <= 25.5\ngini = 0.001\nsamples = 4341\nvalue = [5068.001, 3.496]"] ;
99 -> 100 ;
101 [label="LetterRatioInURL <= 0.448\ngini = 0.026\nsamples = 171\nvalue = [196.316, 2.622]"] ;
100 -> 101 ;
102 [label="URLCharProb <= 0.056\ngini = 0.137\nsamples = 31\nvalue = [32.719, 2.622]"] ;
101 -> 102 ;
103 [label="gini = 0.0\nsamples = 22\nvalue = [25.708, 0.0]"] ;
102 -> 103 ;
104 [label="URLCharProb <= 0.058\ngini = 0.396\nsamples = 9\nvalue = [7.011, 2.622]"] ;
102 -> 104 ;
105 [label="gini = 0.0\nsamples = 3\nvalue = [0.0, 2.622]"] ;
104 -> 105 ;
106 [label="gini = 0.0\nsamples = 6\nvalue = [7.011, 0.0]"] ;
104 -> 106 ;
107 [label="gini = 0.0\nsamples = 140\nvalue = [163.597, 0.0]"] ;
101 -> 107 ;
108 [label="NoOfEmptyRef <= 1.5\ngini = 0.0\nsamples = 4170\nvalue = [4871.684, 0.874]"] ;
100 -> 108 ;
109 [label="gini = 0.0\nsamples = 3991\nvalue = [4663.683, 0.0]"] ;
108 -> 109 ;
110 [label="NoOfSelfRef <= 1.5\ngini = 0.008\nsamples = 179\nvalue = [208.002, 0.874]"] ;
108 -> 110 ;
111 [label="gini = 0.0\nsamples = 176\nvalue = [205.665, 0.0]"] ;
110 -> 111 ;
112 [label="TLDLength <= 2.5\ngini = 0.396\nsamples = 3\nvalue = [2.337, 0.874]"] ;
110 -> 112 ;
113 [label="gini = 0.0\nsamples = 1\nvalue = [0.0, 0.874]"] ;
112 -> 113 ;
114 [label="gini = 0.0\nsamples = 2\nvalue = [2.337, 0.0]"] ;
112 -> 114 ;
115 [label="URLLength <= 33.0\ngini = 0.354\nsamples = 7\nvalue = [5.843, 1.748]"] ;
99 -> 115 ;
116 [label="gini = 0.0\nsamples = 2\nvalue = [0.0, 1.748]"] ;
115 -> 116 ;
117 [label="gini = -0.0\nsamples = 5\nvalue = [5.843, 0.0]"] ;
115 -> 117 ;
118 [label="NoOfOtherSpecialCharsInURL <= 1.5\ngini = 0.088\nsamples = 951\nvalue = [1043.515, 50.689]"] ;
6 -> 118 ;
119 [label="LetterRatioInURL <= 0.537\ngini = 0.45\nsamples = 68\nvalue = [22.202, 42.823]"] ;
118 -> 119 ;
120 [label="URLCharProb <= 0.049\ngini = 0.229\nsamples = 49\nvalue = [5.843, 38.454]"] ;
119 -> 120 ;
121 [label="gini = 0.0\nsamples = 3\nvalue = [3.506, 0.0]"] ;
120 -> 121 ;
122 [label="NoOfCSS <= 0.5\ngini = 0.108\nsamples = 46\nvalue = [2.337, 38.454]"] ;
120 -> 122 ;
123 [label="NoOfSelfRef <= 0.5\ngini = 0.48\nsamples = 6\nvalue = [2.337, 3.496]"] ;
122 -> 123 ;
124 [label="gini = 0.0\nsamples = 2\nvalue = [2.337, 0.0]"] ;
123 -> 124 ;
125 [label="gini = -0.0\nsamples = 4\nvalue = [0.0, 3.496]"] ;
123 -> 125 ;
126 [label="NoOfURLRedirect <= 0.5\ngini = 0.0\nsamples = 40\nvalue = [0.0, 34.958]"] ;
122 -> 126 ;
127 [label="gini = 0.0\nsamples = 37\nvalue = [0.0, 32.336]"] ;
126 -> 127 ;
128 [label="gini = 0.0\nsamples = 3\nvalue = [0.0, 2.622]"] ;
126 -> 128 ;
129 [label="NoOfSelfRef <= 1.5\ngini = 0.333\nsamples = 19\nvalue = [16.36, 4.37]"] ;
119 -> 129 ;
130 [label="LineOfCode <= 265.0\ngini = 0.174\nsamples = 16\nvalue = [16.36, 1.748]"] ;
129 -> 130 ;
131 [label="gini = 0.0\nsamples = 13\nvalue = [15.191, 0.0]"] ;
130 -> 131 ;
132 [label="Bank <= 0.5\ngini = 0.48\nsamples = 3\nvalue = [1.169, 1.748]"] ;
130 -> 132 ;
133 [label="gini = 0.0\nsamples = 2\nvalue = [0.0, 1.748]"] ;
132 -> 133 ;
134 [label="gini = 0.0\nsamples = 1\nvalue = [1.169, 0.0]"] ;
132 -> 134 ;
135 [label="gini = -0.0\nsamples = 3\nvalue = [0.0, 2.622]"] ;
129 -> 135 ;
136 [label="NoOfLettersInURL <= 10.5\ngini = 0.015\nsamples = 883\nvalue = [1021.313, 7.865]"] ;
118 -> 136 ;
137 [label="URLCharProb <= 0.047\ngini = 0.396\nsamples = 15\nvalue = [11.685, 4.37]"] ;
136 -> 137 ;
138 [label="LargestLineLength <= 142.5\ngini = 0.0\nsamples = 9\nvalue = [10.517, 0.0]"] ;
137 -> 138 ;
139 [label="gini = 0.0\nsamples = 1\nvalue = [1.169, 0.0]"] ;
138 -> 139 ;
140 [label="gini = 0.0\nsamples = 8\nvalue = [9.348, 0.0]"] ;
138 -> 140 ;
141 [label="NoOfExternalRef <= 0.5\ngini = 0.333\nsamples = 6\nvalue = [1.169, 4.37]"] ;
137 -> 141 ;
142 [label="gini = 0.0\nsamples = 1\nvalue = [1.169, 0.0]"] ;
141 -> 142 ;
143 [label="gini = -0.0\nsamples = 5\nvalue = [0.0, 4.37]"] ;
141 -> 143 ;
144 [label="URLCharProb <= 0.069\ngini = 0.007\nsamples = 868\nvalue = [1009.627, 3.496]"] ;
136 -> 144 ;
145 [label="NoOfSelfRef <= 1.5\ngini = 0.005\nsamples = 866\nvalue = [1008.459, 2.622]"] ;
144 -> 145 ;
146 [label="gini = 0.0\nsamples = 843\nvalue = [985.088, 0.0]"] ;
145 -> 146 ;
147 [label="NoOfOtherSpecialCharsInURL <= 2.5\ngini = 0.181\nsamples = 23\nvalue = [23.371, 2.622]"] ;
145 -> 147 ;
148 [label="gini = 0.0\nsamples = 2\nvalue = [0.0, 1.748]"] ;
147 -> 148 ;
149 [label="NoOfSubDomain <= 2.0\ngini = 0.069\nsamples = 21\nvalue = [23.371, 0.874]"] ;
147 -> 149 ;
150 [label="gini = 0.0\nsamples = 20\nvalue = [23.371, 0.0]"] ;
149 -> 150 ;
151 [label="gini = -0.0\nsamples = 1\nvalue = [0.0, 0.874]"] ;
149 -> 151 ;
152 [label="NoOfCSS <= 1.5\ngini = 0.49\nsamples = 2\nvalue = [1.169, 0.874]"] ;
144 -> 152 ;
153 [label="gini = 0.0\nsamples = 1\nvalue = [0.0, 0.874]"] ;
152 -> 153 ;
154 [label="gini = -0.0\nsamples = 1\nvalue = [1.169, 0.0]"] ;
152 -> 154 ;
155 [label="gini = -0.0\nsamples = 6\nvalue = [0.0, 5.244]"] ;
5 -> 155 ;
156 [label="NoOfOtherSpecialCharsInURL <= 1.5\ngini = 0.126\nsamples = 4394\nvalue = [4680.042, 339.964]"] ;
4 -> 156 ;
157 [label="NoOfSubDomain <= 0.5\ngini = 0.468\nsamples = 483\nvalue = [174.114, 291.897]"] ;
156 -> 157 ;
158 [label="gini = 0.0\nsamples = 74\nvalue = [86.473, 0.0]"] ;
157 -> 158 ;
159 [label="LineOfCode <= 111.5\ngini = 0.355\nsamples = 409\nvalue = [87.641, 291.897]"] ;
157 -> 159 ;
160 [label="NoOfSelfRef <= 0.5\ngini = 0.226\nsamples = 42\nvalue = [40.899, 6.118]"] ;
159 -> 160 ;
161 [label="NoOfImage <= 17.5\ngini = 0.049\nsamples = 30\nvalue = [33.888, 0.874]"] ;
160 -> 161 ;
162 [label="gini = -0.0\nsamples = 29\nvalue = [33.888, 0.0]"] ;
161 -> 162 ;
163 [label="gini = 0.0\nsamples = 1\nvalue = [0.0, 0.874]"] ;
161 -> 163 ;
164 [label="LineOfCode <= 104.5\ngini = 0.49\nsamples = 12\nvalue = [7.011, 5.244]"] ;
160 -> 164 ;
165 [label="NoOfEmptyRef <= 1.5\ngini = 0.197\nsamples = 7\nvalue = [7.011, 0.874]"] ;
164 -> 165 ;
166 [label="gini = 0.0\nsamples = 6\nvalue = [7.011, 0.0]"] ;
165 -> 166 ;
167 [label="gini = -0.0\nsamples = 1\nvalue = [0.0, 0.874]"] ;
165 -> 167 ;
168 [label="gini = -0.0\nsamples = 5\nvalue = [0.0, 4.37]"] ;
164 -> 168 ;
169 [label="NoOfExternalRef <= 1.5\ngini = 0.242\nsamples = 367\nvalue = [46.742, 285.78]"] ;
159 -> 169 ;
170 [label="LetterRatioInURL <= 0.519\ngini = 0.471\nsamples = 108\nvalue = [39.731, 64.672]"] ;
169 -> 170 ;
171 [label="LineOfCode <= 167.0\ngini = 0.366\nsamples = 78\nvalue = [17.528, 55.058]"] ;
170 -> 171 ;
172 [label="LineOfCode <= 164.0\ngini = 0.488\nsamples = 31\nvalue = [12.854, 17.479]"] ;
171 -> 172 ;
173 [label="NoOfCSS <= 1.5\ngini = 0.376\nsamples = 25\nvalue = [5.843, 17.479]"] ;
172 -> 173 ;
174 [label="NoOfEmptyRef <= 0.5\ngini = 0.498\nsamples = 10\nvalue = [4.674, 5.244]"] ;
173 -> 174 ;
175 [label="LetterRatioInURL <= 0.445\ngini = 0.426\nsamples = 8\nvalue = [2.337, 5.244]"] ;
174 -> 175 ;
176 [label="gini = -0.0\nsamples = 5\nvalue = [0.0, 4.37]"] ;
175 -> 176 ;
177 [label="LineOfCode <= 122.5\ngini = 0.396\nsamples = 3\nvalue = [2.337, 0.874]"] ;
175 -> 177 ;
178 [label="gini = 0.0\nsamples = 1\nvalue = [0.0, 0.874]"] ;
177 -> 178 ;
179 [label="gini = 0.0\nsamples = 2\nvalue = [2.337, 0.0]"] ;
177 -> 179 ;
180 [label="gini = 0.0\nsamples = 2\nvalue = [2.337, 0.0]"] ;
174 -> 180 ;
181 [label="NoOfImage <= 3.5\ngini = 0.159\nsamples = 15\nvalue = [1.169, 12.235]"] ;
173 -> 181 ;
182 [label="HasFavicon <= 0.5\ngini = 0.49\nsamples = 2\nvalue = [1.169, 0.874]"] ;
181 -> 182 ;
183 [label="gini = 0.0\nsamples = 1\nvalue = [0.0, 0.874]"] ;
182 -> 183 ;
184 [label="gini = -0.0\nsamples = 1\nvalue = [1.169, 0.0]"] ;
182 -> 184 ;
185 [label="gini = 0.0\nsamples = 13\nvalue = [0.0, 11.361]"] ;
181 -> 185 ;
186 [label="gini = 0.0\nsamples = 6\nvalue = [7.011, 0.0]"] ;
172 -> 186 ;
187 [label="NoOfDegitsInURL <= 1.5\ngini = 0.197\nsamples = 47\nvalue = [4.674, 37.58]"] ;
171 -> 187 ;
188 [label="TLDLegitimateProb <= 0.001\ngini = 0.11\nsamples = 45\nvalue = [2.337, 37.58]"] ;
187 -> 188 ;
189 [label="gini = 0.0\nsamples = 1\nvalue = [1.169, 0.0]"] ;
188 -> 189 ;
190 [label="NoOfJS <= 1.5\ngini = 0.058\nsamples = 44\nvalue = [1.169, 37.58]"] ;
188 -> 190 ;
191 [label="NoOfSelfRef <= 0.5\ngini = 0.245\nsamples = 9\nvalue = [1.169, 6.992]"] ;
190 -> 191 ;
192 [label="NoOfImage <= 5.5\ngini = 0.49\nsamples = 2\nvalue = [1.169, 0.874]"] ;
191 -> 192 ;
193 [label="gini = 0.0\nsamples = 1\nvalue = [0.0, 0.874]"] ;
192 -> 193 ;
194 [label="gini = -0.0\nsamples = 1\nvalue = [1.169, 0.0]"] ;
192 -> 194 ;
195 [label="gini = 0.0\nsamples = 7\nvalue = [0.0, 6.118]"] ;
191 -> 195 ;
196 [label="gini = 0.0\nsamples = 35\nvalue = [0.0, 30.588]"] ;
190 -> 196 ;
197 [label="gini = -0.0\nsamples = 2\nvalue = [2.337, 0.0]"] ;
187 -> 197 ;
198 [label="NoOfJS <= 3.5\ngini = 0.422\nsamples = 30\nvalue = [22.202, 9.613]"] ;
170 -> 198 ;
199 [label="HasFavicon <= 0.5\ngini = 0.235\nsamples = 23\nvalue = [22.202, 3.496]"] ;
198 -> 199 ;
200 [label="gini = 0.0\nsamples = 17\nvalue = [19.865, 0.0]"] ;
199 -> 200 ;
201 [label="LineOfCode <= 179.0\ngini = 0.48\nsamples = 6\nvalue = [2.337, 3.496]"] ;
199 -> 201 ;
202 [label="gini = -0.0\nsamples = 4\nvalue = [0.0, 3.496]"] ;
201 -> 202 ;
203 [label="URLCharProb <= 0.063\ngini = 0.0\nsamples = 2\nvalue = [2.337, 0.0]"] ;
201 -> 203 ;
204 [label="gini = 0.0\nsamples = 1\nvalue = [1.169, 0.0]"] ;
203 -> 204 ;
205 [label="gini = 0.0\nsamples = 1\nvalue = [1.169, 0.0]"] ;
203 -> 205 ;
206 [label="gini = 0.0\nsamples = 7\nvalue = [0.0, 6.118]"] ;
198 -> 206 ;
207 [label="LargestLineLength <= 11512.5\ngini = 0.06\nsamples = 259\nvalue = [7.011, 221.108]"] ;
169 -> 207 ;
208 [label="LineOfCode <= 135.0\ngini = 0.05\nsamples = 258\nvalue = [5.843, 221.108]"] ;
207 -> 208 ;
209 [label="LargestLineLength <= 142.5\ngini = 0.261\nsamples = 25\nvalue = [3.506, 19.227]"] ;
208 -> 209 ;
210 [label="gini = 0.0\nsamples = 1\nvalue = [1.169, 0.0]"] ;
209 -> 210 ;
211 [label="DegitRatioInURL <= 0.102\ngini = 0.193\nsamples = 24\nvalue = [2.337, 19.227]"] ;
209 -> 211 ;
212 [label="Bank <= 0.5\ngini = 0.108\nsamples = 23\nvalue = [1.169, 19.227]"] ;
211 -> 212 ;
213 [label="gini = -0.0\nsamples = 21\nvalue = [0.0, 18.353]"] ;
212 -> 213 ;
214 [label="TLDLegitimateProb <= 0.301\ngini = 0.49\nsamples = 2\nvalue = [1.169, 0.874]"] ;
212 -> 214 ;
215 [label="gini = 0.0\nsamples = 1\nvalue = [0.0, 0.874]"] ;
214 -> 215 ;
216 [label="gini = -0.0\nsamples = 1\nvalue = [1.169, 0.0]"] ;
214 -> 216 ;
217 [label="gini = 0.0\nsamples = 1\nvalue = [1.169, 0.0]"] ;
211 -> 217 ;
218 [label="URLCharProb <= 0.074\ngini = 0.023\nsamples = 233\nvalue = [2.337, 201.881]"] ;
208 -> 218 ;
219 [label="LetterRatioInURL <= 0.597\ngini = 0.012\nsamples = 229\nvalue = [1.169, 199.259]"] ;
218 -> 219 ;
220 [label="gini = 0.0\nsamples = 221\nvalue = [0.0, 193.142]"] ;
219 -> 220 ;
221 [label="DomainLength <= 24.5\ngini = 0.269\nsamples = 8\nvalue = [1.169, 6.118]"] ;
219 -> 221 ;
222 [label="gini = 0.0\nsamples = 1\nvalue = [1.169, 0.0]"] ;
221 -> 222 ;
223 [label="gini = -0.0\nsamples = 7\nvalue = [0.0, 6.118]"] ;
221 -> 223 ;
224 [label="URLCharProb <= 0.074\ngini = 0.426\nsamples = 4\nvalue = [1.169, 2.622]"] ;
218 -> 224 ;
225 [label="gini = 0.0\nsamples = 1\nvalue = [1.169, 0.0]"] ;
224 -> 225 ;
226 [label="gini = 0.0\nsamples = 3\nvalue = [0.0, 2.622]"] ;
224 -> 226 ;
227 [label="gini = 0.0\nsamples = 1\nvalue = [1.169, 0.0]"] ;
207 -> 227 ;
228 [label="URLLength <= 28.5\ngini = 0.021\nsamples = 3911\nvalue = [4505.928, 48.067]"] ;
156 -> 228 ;
229 [label="NoOfImage <= 7.5\ngini = 0.296\nsamples = 180\nvalue = [162.428, 35.832]"] ;
228 -> 229 ;
230 [label="Robots <= 0.5\ngini = 0.154\nsamples = 146\nvalue = [151.911, 13.983]"] ;
229 -> 230 ;
231 [label="LineOfCode <= 259.0\ngini = 0.097\nsamples = 134\nvalue = [146.069, 7.865]"] ;
230 -> 231 ;
232 [label="NoOfJS <= 9.5\ngini = 0.078\nsamples = 131\nvalue = [144.9, 6.118]"] ;
231 -> 232 ;
233 [label="NoOfPopup <= 0.5\ngini = 0.057\nsamples = 128\nvalue = [143.732, 4.37]"] ;
232 -> 233 ;
234 [label="DomainLength <= 20.5\ngini = 0.046\nsamples = 127\nvalue = [143.732, 3.496]"] ;
233 -> 234 ;
235 [label="NoOfJS <= 5.5\ngini = 0.025\nsamples = 119\nvalue = [136.72, 1.748]"] ;
234 -> 235 ;
236 [label="gini = 0.0\nsamples = 108\nvalue = [126.203, 0.0]"] ;
235 -> 236 ;
237 [label="TLDLegitimateProb <= 0.042\ngini = 0.244\nsamples = 11\nvalue = [10.517, 1.748]"] ;
235 -> 237 ;
238 [label="CharContinuationRate <= 0.525\ngini = 0.0\nsamples = 8\nvalue = [9.348, 0.0]"] ;
237 -> 238 ;
239 [label="gini = 0.0\nsamples = 2\nvalue = [2.337, 0.0]"] ;
238 -> 239 ;
240 [label="gini = 0.0\nsamples = 6\nvalue = [7.011, 0.0]"] ;
238 -> 240 ;
241 [label="URLLength <= 23.0\ngini = 0.48\nsamples = 3\nvalue = [1.169, 1.748]"] ;
237 -> 241 ;
242 [label="gini = 0.0\nsamples = 1\nvalue = [1.169, 0.0]"] ;
241 -> 242 ;
243 [label="gini = 0.0\nsamples = 2\nvalue = [0.0, 1.748]"] ;
241 -> 243 ;
244 [label="NoOfSubDomain <= 1.5\ngini = 0.319\nsamples = 8\nvalue = [7.011, 1.748]"] ;
234 -> 244 ;
245 [label="gini = 0.0\nsamples = 2\nvalue = [0.0, 1.748]"] ;
244 -> 245 ;
246 [label="gini = 0.0\nsamples = 6\nvalue = [7.011, 0.0]"] ;
244 -> 246 ;
247 [label="gini = 0.0\nsamples = 1\nvalue = [0.0, 0.874]"] ;
233 -> 247 ;
248 [label="LargestLineLength <= 9388.0\ngini = 0.48\nsamples = 3\nvalue = [1.169, 1.748]"] ;
232 -> 248 ;
249 [label="gini = 0.0\nsamples = 2\nvalue = [0.0, 1.748]"] ;
248 -> 249 ;
250 [label="gini = 0.0\nsamples = 1\nvalue = [1.169, 0.0]"] ;
248 -> 250 ;
251 [label="URLLength <= 26.5\ngini = 0.48\nsamples = 3\nvalue = [1.169, 1.748]"] ;
231 -> 251 ;
252 [label="gini = 0.0\nsamples = 2\nvalue = [0.0, 1.748]"] ;
251 -> 252 ;
253 [label="gini = 0.0\nsamples = 1\nvalue = [1.169, 0.0]"] ;
251 -> 253 ;
254 [label="LineOfCode <= 97.5\ngini = 0.5\nsamples = 12\nvalue = [5.843, 6.118]"] ;
230 -> 254 ;
255 [label="gini = 0.0\nsamples = 3\nvalue = [3.506, 0.0]"] ;
254 -> 255 ;
256 [label="Pay <= 0.5\ngini = 0.4\nsamples = 9\nvalue = [2.337, 6.118]"] ;
254 -> 256 ;
257 [label="gini = -0.0\nsamples = 7\nvalue = [0.0, 6.118]"] ;
256 -> 257 ;
258 [label="URLLength <= 26.0\ngini = 0.0\nsamples = 2\nvalue = [2.337, 0.0]"] ;
256 -> 258 ;
259 [label="gini = 0.0\nsamples = 1\nvalue = [1.169, 0.0]"] ;
258 -> 259 ;
260 [label="gini = 0.0\nsamples = 1\nvalue = [1.169, 0.0]"] ;
258 -> 260 ;
261 [label="LetterRatioInURL <= 0.509\ngini = 0.439\nsamples = 34\nvalue = [10.517, 21.849]"] ;
229 -> 261 ;
262 [label="LineOfCode <= 94.5\ngini = 0.096\nsamples = 26\nvalue = [1.169, 21.849]"] ;
261 -> 262 ;
263 [label="gini = 0.0\nsamples = 1\nvalue = [1.169, 0.0]"] ;
262 -> 263 ;
264 [label="gini = 0.0\nsamples = 25\nvalue = [0.0, 21.849]"] ;
262 -> 264 ;
265 [label="gini = 0.0\nsamples = 8\nvalue = [9.348, 0.0]"] ;
261 -> 265 ;
266 [label="NoOfOtherSpecialCharsInURL <= 2.5\ngini = 0.006\nsamples = 3731\nvalue = [4343.5, 12.235]"] ;
228 -> 266 ;
267 [label="LetterRatioInURL <= 0.564\ngini = 0.085\nsamples = 171\nvalue = [188.137, 8.739]"] ;
266 -> 267 ;
268 [label="LineOfCode <= 174.5\ngini = 0.45\nsamples = 22\nvalue = [15.191, 7.865]"] ;
267 -> 268 ;
269 [label="gini = 0.0\nsamples = 11\nvalue = [12.854, 0.0]"] ;
268 -> 269 ;
270 [label="LargestLineLength <= 126.0\ngini = 0.353\nsamples = 11\nvalue = [2.337, 7.865]"] ;
268 -> 270 ;
271 [label="gini = 0.0\nsamples = 2\nvalue = [2.337, 0.0]"] ;
270 -> 271 ;
272 [label="gini = 0.0\nsamples = 9\nvalue = [0.0, 7.865]"] ;
270 -> 272 ;
273 [label="NoOfCSS <= 5.5\ngini = 0.01\nsamples = 149\nvalue = [172.945, 0.874]"] ;
267 -> 273 ;
274 [label="gini = 0.0\nsamples = 147\nvalue = [171.777, 0.0]"] ;
273 -> 274 ;
275 [label="DomainLength <= 30.0\ngini = 0.49\nsamples = 2\nvalue = [1.169, 0.874]"] ;
273 -> 275 ;
276 [label="gini = 0.0\nsamples = 1\nvalue = [0.0, 0.874]"] ;
275 -> 276 ;
277 [label="gini = -0.0\nsamples = 1\nvalue = [1.169, 0.0]"] ;
275 -> 277 ;
278 [label="URLLength <= 29.5\ngini = 0.002\nsamples = 3560\nvalue = [4155.363, 3.496]"] ;
266 -> 278 ;
279 [label="Robots <= 0.5\ngini = 0.135\nsamples = 21\nvalue = [22.202, 1.748]"] ;
278 -> 279 ;
280 [label="gini = 0.0\nsamples = 19\nvalue = [22.202, 0.0]"] ;
279 -> 280 ;
281 [label="gini = -0.0\nsamples = 2\nvalue = [0.0, 1.748]"] ;
279 -> 281 ;
282 [label="NoOfJS <= 11.5\ngini = 0.001\nsamples = 3539\nvalue = [4133.161, 1.748]"] ;
278 -> 282 ;
283 [label="NoOfCSS <= 5.5\ngini = 0.0\nsamples = 3531\nvalue = [4124.981, 0.874]"] ;
282 -> 283 ;
284 [label="gini = -0.0\nsamples = 3477\nvalue = [4063.048, 0.0]"] ;
283 -> 284 ;
285 [label="NoOfLettersInURL <= 17.0\ngini = 0.027\nsamples = 54\nvalue = [61.933, 0.874]"] ;
283 -> 285 ;
286 [label="gini = 0.0\nsamples = 1\nvalue = [0.0, 0.874]"] ;
285 -> 286 ;
287 [label="gini = -0.0\nsamples = 53\nvalue = [61.933, 0.0]"] ;
285 -> 287 ;
288 [label="NoOfImage <= 8.0\ngini = 0.174\nsamples = 8\nvalue = [8.18, 0.874]"] ;
282 -> 288 ;
289 [label="NoOfLettersInURL <= 28.5\ngini = 0.0\nsamples = 7\nvalue = [8.18, 0.0]"] ;
288 -> 289 ;
290 [label="gini = 0.0\nsamples = 2\nvalue = [2.337, 0.0]"] ;
289 -> 290 ;
291 [label="gini = 0.0\nsamples = 5\nvalue = [5.843, 0.0]"] ;
289 -> 291 ;
292 [label="gini = -0.0\nsamples = 1\nvalue = [0.0, 0.874]"] ;
288 -> 292 ;
293 [label="NoOfOtherSpecialCharsInURL <= 2.5\ngini = 0.35\nsamples = 2441\nvalue = [2050.805, 599.525]"] ;
3 -> 293 ;
294 [label="DegitRatioInURL <= 0.009\ngini = 0.309\nsamples = 787\nvalue = [137.889, 584.668]"] ;
293 -> 294 ;
295 [label="NoOfSubDomain <= 0.5\ngini = 0.18\nsamples = 703\nvalue = [63.102, 567.189]"] ;
294 -> 295 ;
296 [label="gini = 0.0\nsamples = 28\nvalue = [32.719, 0.0]"] ;
295 -> 296 ;
297 [label="LetterRatioInURL <= 0.676\ngini = 0.097\nsamples = 675\nvalue = [30.382, 567.189]"] ;
295 -> 297 ;
298 [label="LargestLineLength <= 331236.5\ngini = 0.062\nsamples = 662\nvalue = [18.697, 564.568]"] ;
297 -> 298 ;
299 [label="LargestLineLength <= 124.0\ngini = 0.047\nsamples = 658\nvalue = [14.023, 564.568]"] ;
298 -> 299 ;
300 [label="LargestLineLength <= 119.5\ngini = 0.46\nsamples = 7\nvalue = [4.674, 2.622]"] ;
299 -> 300 ;
301 [label="gini = 0.0\nsamples = 3\nvalue = [0.0, 2.622]"] ;
300 -> 301 ;
302 [label="gini = 0.0\nsamples = 4\nvalue = [4.674, 0.0]"] ;
300 -> 302 ;
303 [label="LargestLineLength <= 32781.5\ngini = 0.032\nsamples = 651\nvalue = [9.348, 561.946]"] ;
299 -> 303 ;
304 [label="LetterRatioInURL <= 0.639\ngini = 0.017\nsamples = 635\nvalue = [4.674, 551.458]"] ;
303 -> 304 ;
305 [label="NoOfPopup <= 2.5\ngini = 0.009\nsamples = 620\nvalue = [2.337, 540.097]"] ;
304 -> 305 ;
306 [label="LetterRatioInURL <= 0.613\ngini = 0.004\nsamples = 612\nvalue = [1.169, 533.98]"] ;
305 -> 306 ;
307 [label="gini = 0.0\nsamples = 586\nvalue = [0.0, 512.131]"] ;
306 -> 307 ;
308 [label="NoOfLettersInURL <= 18.5\ngini = 0.096\nsamples = 26\nvalue = [1.169, 21.849]"] ;
306 -> 308 ;
309 [label="gini = 0.0\nsamples = 1\nvalue = [1.169, 0.0]"] ;
308 -> 309 ;
310 [label="gini = 0.0\nsamples = 25\nvalue = [0.0, 21.849]"] ;
308 -> 310 ;
311 [label="NoOfImage <= 0.5\ngini = 0.269\nsamples = 8\nvalue = [1.169, 6.118]"] ;
305 -> 311 ;
312 [label="gini = 0.0\nsamples = 1\nvalue = [1.169, 0.0]"] ;
311 -> 312 ;
313 [label="gini = 0.0\nsamples = 7\nvalue = [0.0, 6.118]"] ;
311 -> 313 ;
314 [label="CharContinuationRate <= 0.84\ngini = 0.283\nsamples = 15\nvalue = [2.337, 11.361]"] ;
304 -> 314 ;
315 [label="Bank <= 0.5\ngini = 0.396\nsamples = 3\nvalue = [2.337, 0.874]"] ;
314 -> 315 ;
316 [label="gini = 0.0\nsamples = 1\nvalue = [0.0, 0.874]"] ;
315 -> 316 ;
317 [label="gini = 0.0\nsamples = 2\nvalue = [2.337, 0.0]"] ;
315 -> 317 ;
318 [label="gini = 0.0\nsamples = 12\nvalue = [0.0, 10.487]"] ;
314 -> 318 ;
319 [label="LineOfCode <= 1094.5\ngini = 0.426\nsamples = 16\nvalue = [4.674, 10.487]"] ;
303 -> 319 ;
320 [label="gini = 0.0\nsamples = 4\nvalue = [4.674, 0.0]"] ;
319 -> 320 ;
321 [label="gini = -0.0\nsamples = 12\nvalue = [0.0, 10.487]"] ;
319 -> 321 ;
322 [label="NoOfOtherSpecialCharsInURL <= 1.5\ngini = 0.0\nsamples = 4\nvalue = [4.674, 0.0]"] ;
298 -> 322 ;
323 [label="gini = 0.0\nsamples = 2\nvalue = [2.337, 0.0]"] ;
322 -> 323 ;
324 [label="gini = 0.0\nsamples = 2\nvalue = [2.337, 0.0]"] ;
322 -> 324 ;
325 [label="NoOfCSS <= 0.5\ngini = 0.299\nsamples = 13\nvalue = [11.685, 2.622]"] ;
297 -> 325 ;
326 [label="gini = 0.0\nsamples = 10\nvalue = [11.685, 0.0]"] ;
325 -> 326 ;
327 [label="gini = -0.0\nsamples = 3\nvalue = [0.0, 2.622]"] ;
325 -> 327 ;
328 [label="NoOfOtherSpecialCharsInURL <= 1.5\ngini = 0.307\nsamples = 84\nvalue = [74.787, 17.479]"] ;
294 -> 328 ;
329 [label="NoOfExternalRef <= 0.5\ngini = 0.321\nsamples = 19\nvalue = [3.506, 13.983]"] ;
328 -> 329 ;
330 [label="NoOfImage <= 10.5\ngini = 0.319\nsamples = 4\nvalue = [3.506, 0.874]"] ;
329 -> 330 ;
331 [label="NoOfiFrame <= 1.5\ngini = 0.0\nsamples = 3\nvalue = [3.506, 0.0]"] ;
330 -> 331 ;
332 [label="gini = 0.0\nsamples = 2\nvalue = [2.337, 0.0]"] ;
331 -> 332 ;
333 [label="gini = 0.0\nsamples = 1\nvalue = [1.169, 0.0]"] ;
331 -> 333 ;
334 [label="gini = 0.0\nsamples = 1\nvalue = [0.0, 0.874]"] ;
330 -> 334 ;
335 [label="URLLength <= 18.5\ngini = 0.0\nsamples = 15\nvalue = [0.0, 13.109]"] ;
329 -> 335 ;
336 [label="gini = 0.0\nsamples = 2\nvalue = [0.0, 1.748]"] ;
335 -> 336 ;
337 [label="gini = 0.0\nsamples = 13\nvalue = [0.0, 11.361]"] ;
335 -> 337 ;
338 [label="LetterRatioInURL <= 0.235\ngini = 0.089\nsamples = 65\nvalue = [71.282, 3.496]"] ;
328 -> 338 ;
339 [label="gini = 0.0\nsamples = 2\nvalue = [0.0, 1.748]"] ;
338 -> 339 ;
340 [label="NoOfSelfRef <= 2.5\ngini = 0.047\nsamples = 63\nvalue = [71.282, 1.748]"] ;
338 -> 340 ;
341 [label="NoOfJS <= 0.5\ngini = 0.0\nsamples = 61\nvalue = [71.282, 0.0]"] ;
340 -> 341 ;
342 [label="gini = 0.0\nsamples = 10\nvalue = [11.685, 0.0]"] ;
341 -> 342 ;
343 [label="gini = 0.0\nsamples = 51\nvalue = [59.596, 0.0]"] ;
341 -> 343 ;
344 [label="LargestLineLength <= 6356.5\ngini = 0.0\nsamples = 2\nvalue = [0.0, 1.748]"] ;
340 -> 344 ;
345 [label="gini = 0.0\nsamples = 1\nvalue = [0.0, 0.874]"] ;
344 -> 345 ;
346 [label="gini = 0.0\nsamples = 1\nvalue = [0.0, 0.874]"] ;
344 -> 346 ;
347 [label="URLLength <= 30.5\ngini = 0.015\nsamples = 1654\nvalue = [1912.916, 14.857]"] ;
293 -> 347 ;
348 [label="CharContinuationRate <= 0.548\ngini = 0.404\nsamples = 32\nvalue = [24.54, 9.613]"] ;
347 -> 348 ;
349 [label="NoOfOtherSpecialCharsInURL <= 3.5\ngini = 0.47\nsamples = 16\nvalue = [5.843, 9.613]"] ;
348 -> 349 ;
350 [label="gini = -0.0\nsamples = 10\nvalue = [0.0, 8.739]"] ;
349 -> 350 ;
351 [label="DomainLength <= 22.0\ngini = 0.226\nsamples = 6\nvalue = [5.843, 0.874]"] ;
349 -> 351 ;
352 [label="gini = 0.0\nsamples = 5\nvalue = [5.843, 0.0]"] ;
351 -> 352 ;
353 [label="gini = -0.0\nsamples = 1\nvalue = [0.0, 0.874]"] ;
351 -> 353 ;
354 [label="IsDomainIP <= 0.5\ngini = 0.0\nsamples = 16\nvalue = [18.697, 0.0]"] ;
348 -> 354 ;
355 [label="gini = 0.0\nsamples = 15\nvalue = [17.528, 0.0]"] ;
354 -> 355 ;
356 [label="gini = 0.0\nsamples = 1\nvalue = [1.169, 0.0]"] ;
354 -> 356 ;
357 [label="URLLength <= 34.5\ngini = 0.006\nsamples = 1622\nvalue = [1888.377, 5.244]"] ;
347 -> 357 ;
358 [label="DomainLength <= 26.5\ngini = 0.107\nsamples = 54\nvalue = [58.427, 3.496]"] ;
357 -> 358 ;
359 [label="NoOfSubDomain <= 2.5\ngini = 0.056\nsamples = 52\nvalue = [58.427, 1.748]"] ;
358 -> 359 ;
360 [label="URLCharProb <= 0.065\ngini = 0.029\nsamples = 51\nvalue = [58.427, 0.874]"] ;
359 -> 360 ;
361 [label="gini = -0.0\nsamples = 49\nvalue = [57.259, 0.0]"] ;
360 -> 361 ;
362 [label="CharContinuationRate <= 0.592\ngini = 0.49\nsamples = 2\nvalue = [1.169, 0.874]"] ;
360 -> 362 ;
363 [label="gini = 0.0\nsamples = 1\nvalue = [0.0, 0.874]"] ;
362 -> 363 ;
364 [label="gini = -0.0\nsamples = 1\nvalue = [1.169, 0.0]"] ;
362 -> 364 ;
365 [label="gini = 0.0\nsamples = 1\nvalue = [0.0, 0.874]"] ;
359 -> 365 ;
366 [label="NoOfSubDomain <= 1.5\ngini = 0.0\nsamples = 2\nvalue = [0.0, 1.748]"] ;
358 -> 366 ;
367 [label="gini = 0.0\nsamples = 1\nvalue = [0.0, 0.874]"] ;
366 -> 367 ;
368 [label="gini = 0.0\nsamples = 1\nvalue = [0.0, 0.874]"] ;
366 -> 368 ;
369 [label="URLCharProb <= 0.063\ngini = 0.002\nsamples = 1568\nvalue = [1829.949, 1.748]"] ;
357 -> 369 ;
370 [label="gini = 0.0\nsamples = 1539\nvalue = [1798.398, 0.0]"] ;
369 -> 370 ;
371 [label="NoOfImage <= 6.5\ngini = 0.099\nsamples = 29\nvalue = [31.551, 1.748]"] ;
369 -> 371 ;
372 [label="gini = -0.0\nsamples = 27\nvalue = [31.551, 0.0]"] ;
371 -> 372 ;
373 [label="LineOfCode <= 536.0\ngini = 0.0\nsamples = 2\nvalue = [0.0, 1.748]"] ;
371 -> 373 ;
374 [label="gini = 0.0\nsamples = 1\nvalue = [0.0, 0.874]"] ;
373 -> 374 ;
375 [label="gini = 0.0\nsamples = 1\nvalue = [0.0, 0.874]"] ;
373 -> 375 ;
376 [label="NoOfOtherSpecialCharsInURL <= 3.5\ngini = 0.237\nsamples = 385\nvalue = [47.911, 300.637]"] ;
2 -> 376 ;
377 [label="NoOfSubDomain <= 0.5\ngini = 0.03\nsamples = 347\nvalue = [4.674, 299.763]"] ;
376 -> 377 ;
378 [label="gini = 0.0\nsamples = 3\nvalue = [3.506, 0.0]"] ;
377 -> 378 ;
379 [label="LineOfCode <= 93.0\ngini = 0.008\nsamples = 344\nvalue = [1.169, 299.763]"] ;
377 -> 379 ;
380 [label="gini = 0.0\nsamples = 1\nvalue = [1.169, 0.0]"] ;
379 -> 380 ;
381 [label="gini = 0.0\nsamples = 343\nvalue = [0.0, 299.763]"] ;
379 -> 381 ;
382 [label="URLCharProb <= 0.06\ngini = 0.039\nsamples = 38\nvalue = [43.236, 0.874]"] ;
376 -> 382 ;
383 [label="gini = 0.0\nsamples = 37\nvalue = [43.236, 0.0]"] ;
382 -> 383 ;
384 [label="gini = 0.0\nsamples = 1\nvalue = [0.0, 0.874]"] ;
382 -> 384 ;
385 [label="NoOfSubDomain <= 0.5\ngini = 0.243\nsamples = 3505\nvalue = [449.892, 2726.704]"] ;
1 -> 385 ;
386 [label="gini = 0.0\nsamples = 263\nvalue = [307.329, 0.0]"] ;
385 -> 386 ;
387 [label="LineOfCode <= 100.5\ngini = 0.094\nsamples = 3242\nvalue = [142.563, 2726.704]"] ;
385 -> 387 ;
388 [label="gini = 0.0\nsamples = 63\nvalue = [73.619, 0.0]"] ;
387 -> 388 ;
389 [label="NoOfDegitsInURL <= 4.5\ngini = 0.048\nsamples = 3179\nvalue = [68.944, 2726.704]"] ;
387 -> 389 ;
390 [label="URLLength <= 46.5\ngini = 0.023\nsamples = 3147\nvalue = [32.719, 2725.83]"] ;
389 -> 390 ;
391 [label="LargestLineLength <= 122.5\ngini = 0.021\nsamples = 3143\nvalue = [29.214, 2724.956]"] ;
390 -> 391 ;
392 [label="DomainLength <= 18.5\ngini = 0.472\nsamples = 19\nvalue = [7.011, 11.361]"] ;
391 -> 392 ;
393 [label="NoOfPopup <= 0.5\ngini = 0.0\nsamples = 11\nvalue = [0.0, 9.613]"] ;
392 -> 393 ;
394 [label="gini = 0.0\nsamples = 10\nvalue = [0.0, 8.739]"] ;
393 -> 394 ;
395 [label="gini = 0.0\nsamples = 1\nvalue = [0.0, 0.874]"] ;
393 -> 395 ;
396 [label="NoOfExternalRef <= 2.0\ngini = 0.319\nsamples = 8\nvalue = [7.011, 1.748]"] ;
392 -> 396 ;
397 [label="gini = -0.0\nsamples = 6\nvalue = [7.011, 0.0]"] ;
396 -> 397 ;
398 [label="gini = -0.0\nsamples = 2\nvalue = [0.0, 1.748]"] ;
396 -> 398 ;
399 [label="LineOfCode <= 153.5\ngini = 0.016\nsamples = 3124\nvalue = [22.202, 2713.595]"] ;
391 -> 399 ;
400 [label="DegitRatioInURL <= 0.078\ngini = 0.202\nsamples = 148\nvalue = [15.191, 117.982]"] ;
399 -> 400 ;
401 [label="LargestLineLength <= 4684.5\ngini = 0.151\nsamples = 143\nvalue = [10.517, 117.108]"] ;
400 -> 401 ;
402 [label="NoOfSelfRef <= 7.5\ngini = 0.122\nsamples = 141\nvalue = [8.18, 117.108]"] ;
401 -> 402 ;
403 [label="NoOfEmptyRef <= 0.5\ngini = 0.409\nsamples = 26\nvalue = [7.011, 17.479]"] ;
402 -> 403 ;
404 [label="NoOfImage <= 0.5\ngini = 0.142\nsamples = 17\nvalue = [1.169, 13.983]"] ;
403 -> 404 ;
405 [label="LetterRatioInURL <= 0.49\ngini = 0.49\nsamples = 2\nvalue = [1.169, 0.874]"] ;
404 -> 405 ;
406 [label="gini = 0.0\nsamples = 1\nvalue = [0.0, 0.874]"] ;
405 -> 406 ;
407 [label="gini = -0.0\nsamples = 1\nvalue = [1.169, 0.0]"] ;
405 -> 407 ;
408 [label="gini = 0.0\nsamples = 15\nvalue = [0.0, 13.109]"] ;
404 -> 408 ;
409 [label="LetterRatioInURL <= 0.5\ngini = 0.468\nsamples = 9\nvalue = [5.843, 3.496]"] ;
403 -> 409 ;
410 [label="NoOfExternalRef <= 2.0\ngini = 0.376\nsamples = 5\nvalue = [1.169, 3.496]"] ;
409 -> 410 ;
411 [label="gini = 0.0\nsamples = 1\nvalue = [1.169, 0.0]"] ;
410 -> 411 ;
412 [label="gini = -0.0\nsamples = 4\nvalue = [0.0, 3.496]"] ;
410 -> 412 ;
413 [label="gini = 0.0\nsamples = 4\nvalue = [4.674, 0.0]"] ;
409 -> 413 ;
414 [label="NoOfSelfRef <= 39.5\ngini = 0.023\nsamples = 115\nvalue = [1.169, 99.63]"] ;
402 -> 414 ;
415 [label="gini = 0.0\nsamples = 106\nvalue = [0.0, 92.638]"] ;
414 -> 415 ;
416 [label="LineOfCode <= 116.5\ngini = 0.245\nsamples = 9\nvalue = [1.169, 6.992]"] ;
414 -> 416 ;
417 [label="gini = 0.0\nsamples = 1\nvalue = [1.169, 0.0]"] ;
416 -> 417 ;
418 [label="gini = 0.0\nsamples = 8\nvalue = [0.0, 6.992]"] ;
416 -> 418 ;
419 [label="TLDLegitimateProb <= 0.263\ngini = 0.0\nsamples = 2\nvalue = [2.337, 0.0]"] ;
401 -> 419 ;
420 [label="gini = 0.0\nsamples = 1\nvalue = [1.169, 0.0]"] ;
419 -> 420 ;
421 [label="gini = 0.0\nsamples = 1\nvalue = [1.169, 0.0]"] ;
419 -> 421 ;
422 [label="NoOfImage <= 4.5\ngini = 0.265\nsamples = 5\nvalue = [4.674, 0.874]"] ;
400 -> 422 ;
423 [label="gini = 0.0\nsamples = 4\nvalue = [4.674, 0.0]"] ;
422 -> 423 ;
424 [label="gini = -0.0\nsamples = 1\nvalue = [0.0, 0.874]"] ;
422 -> 424 ;
425 [label="NoOfEqualsInURL <= 0.5\ngini = 0.005\nsamples = 2976\nvalue = [7.011, 2595.613]"] ;
399 -> 425 ;
426 [label="NoOfOtherSpecialCharsInURL <= 4.5\ngini = 0.004\nsamples = 2975\nvalue = [5.843, 2595.613]"] ;
425 -> 426 ;
427 [label="NoOfOtherSpecialCharsInURL <= 2.5\ngini = 0.004\nsamples = 2971\nvalue = [4.674, 2592.991]"] ;
426 -> 427 ;
428 [label="LargestLineLength <= 19527.5\ngini = 0.001\nsamples = 2891\nvalue = [1.169, 2525.697]"] ;
427 -> 428 ;
429 [label="NoOfSubDomain <= 1.5\ngini = 0.0\nsamples = 2841\nvalue = [0.0, 2482.874]"] ;
428 -> 429 ;
430 [label="gini = 0.0\nsamples = 2543\nvalue = [0.0, 2222.439]"] ;
429 -> 430 ;
431 [label="gini = 0.0\nsamples = 298\nvalue = [0.0, 260.435]"] ;
429 -> 431 ;
432 [label="LargestLineLength <= 19574.0\ngini = 0.052\nsamples = 50\nvalue = [1.169, 42.823]"] ;
428 -> 432 ;
433 [label="gini = 0.0\nsamples = 1\nvalue = [1.169, 0.0]"] ;
432 -> 433 ;
434 [label="gini = 0.0\nsamples = 49\nvalue = [0.0, 42.823]"] ;
432 -> 434 ;
435 [label="CharContinuationRate <= 0.669\ngini = 0.094\nsamples = 80\nvalue = [3.506, 67.294]"] ;
427 -> 435 ;
436 [label="LineOfCode <= 189.5\ngini = 0.034\nsamples = 78\nvalue = [1.169, 67.294]"] ;
435 -> 436 ;
437 [label="NoOfOtherSpecialCharsInURL <= 3.5\ngini = 0.49\nsamples = 2\nvalue = [1.169, 0.874]"] ;
436 -> 437 ;
438 [label="gini = 0.0\nsamples = 1\nvalue = [0.0, 0.874]"] ;
437 -> 438 ;
439 [label="gini = -0.0\nsamples = 1\nvalue = [1.169, 0.0]"] ;
437 -> 439 ;
440 [label="NoOfSelfRedirect <= 0.5\ngini = 0.0\nsamples = 76\nvalue = [0.0, 66.42]"] ;
436 -> 440 ;
441 [label="gini = 0.0\nsamples = 75\nvalue = [0.0, 65.546]"] ;
440 -> 441 ;
442 [label="gini = 0.0\nsamples = 1\nvalue = [0.0, 0.874]"] ;
440 -> 442 ;
443 [label="URLCharProb <= 0.049\ngini = 0.0\nsamples = 2\nvalue = [2.337, 0.0]"] ;
435 -> 443 ;
444 [label="gini = 0.0\nsamples = 1\nvalue = [1.169, 0.0]"] ;
443 -> 444 ;
445 [label="gini = 0.0\nsamples = 1\nvalue = [1.169, 0.0]"] ;
443 -> 445 ;
446 [label="NoOfiFrame <= 1.0\ngini = 0.426\nsamples = 4\nvalue = [1.169, 2.622]"] ;
426 -> 446 ;
447 [label="gini = 0.0\nsamples = 1\nvalue = [1.169, 0.0]"] ;
446 -> 447 ;
448 [label="gini = 0.0\nsamples = 3\nvalue = [0.0, 2.622]"] ;
446 -> 448 ;
449 [label="gini = -0.0\nsamples = 1\nvalue = [1.169, 0.0]"] ;
425 -> 449 ;
450 [label="DomainLength <= 32.5\ngini = 0.319\nsamples = 4\nvalue = [3.506, 0.874]"] ;
390 -> 450 ;
451 [label="LineOfCode <= 320.5\ngini = 0.0\nsamples = 3\nvalue = [3.506, 0.0]"] ;
450 -> 451 ;
452 [label="gini = 0.0\nsamples = 1\nvalue = [1.169, 0.0]"] ;
451 -> 452 ;
453 [label="gini = 0.0\nsamples = 2\nvalue = [2.337, 0.0]"] ;
451 -> 453 ;
454 [label="gini = 0.0\nsamples = 1\nvalue = [0.0, 0.874]"] ;
450 -> 454 ;
455 [label="TLDLength <= 2.5\ngini = 0.046\nsamples = 32\nvalue = [36.225, 0.874]"] ;
389 -> 455 ;
456 [label="gini = 0.0\nsamples = 1\nvalue = [0.0, 0.874]"] ;
455 -> 456 ;
457 [label="gini = 0.0\nsamples = 31\nvalue = [36.225, 0.0]"] ;
455 -> 457 ;
458 [label="NoOfOtherSpecialCharsInURL <= 3.5\ngini = 0.055\nsamples = 98592\nvalue = [2464.472, 84320.708]"] ;
0 -> 458 [labeldistance=2.5, labelangle=-45, headlabel="False"] ;
459 [label="LineOfCode <= 123.5\ngini = 0.027\nsamples = 97200\nvalue = [1146.347, 84089.987]"] ;
458 -> 459 ;
460 [label="LineOfCode <= 101.0\ngini = 0.32\nsamples = 667\nvalue = [584.275, 145.949]"] ;
459 -> 460 ;
461 [label="LetterRatioInURL <= 0.059\ngini = 0.0\nsamples = 387\nvalue = [452.229, 0.0]"] ;
460 -> 461 ;
462 [label="gini = 0.0\nsamples = 1\nvalue = [1.169, 0.0]"] ;
461 -> 462 ;
463 [label="gini = 0.0\nsamples = 386\nvalue = [451.06, 0.0]"] ;
461 -> 463 ;
464 [label="NoOfOtherSpecialCharsInURL <= 1.5\ngini = 0.499\nsamples = 280\nvalue = [132.046, 145.949]"] ;
460 -> 464 ;
465 [label="NoOfSubDomain <= 0.5\ngini = 0.256\nsamples = 171\nvalue = [23.371, 131.965]"] ;
464 -> 465 ;
466 [label="gini = 0.0\nsamples = 4\nvalue = [4.674, 0.0]"] ;
465 -> 466 ;
467 [label="NoOfDegitsInURL <= 2.5\ngini = 0.217\nsamples = 167\nvalue = [18.697, 131.965]"] ;
465 -> 467 ;
468 [label="NoOfSelfRef <= 4.5\ngini = 0.185\nsamples = 164\nvalue = [15.191, 131.965]"] ;
467 -> 468 ;
469 [label="TLDLegitimateProb <= 0.002\ngini = 0.355\nsamples = 71\nvalue = [15.191, 50.689]"] ;
468 -> 469 ;
470 [label="URLCharProb <= 0.061\ngini = 0.354\nsamples = 7\nvalue = [5.843, 1.748]"] ;
469 -> 470 ;
471 [label="gini = 0.0\nsamples = 5\nvalue = [5.843, 0.0]"] ;
470 -> 471 ;
472 [label="gini = -0.0\nsamples = 2\nvalue = [0.0, 1.748]"] ;
470 -> 472 ;
473 [label="NoOfJS <= 0.5\ngini = 0.269\nsamples = 64\nvalue = [9.348, 48.941]"] ;
469 -> 473 ;
474 [label="LargestLineLength <= 254.0\ngini = 0.499\nsamples = 11\nvalue = [5.843, 5.244]"] ;
473 -> 474 ;
475 [label="NoOfImage <= 10.0\ngini = 0.226\nsamples = 6\nvalue = [5.843, 0.874]"] ;
474 -> 475 ;
476 [label="gini = 0.0\nsamples = 5\nvalue = [5.843, 0.0]"] ;
475 -> 476 ;
477 [label="gini = -0.0\nsamples = 1\nvalue = [0.0, 0.874]"] ;
475 -> 477 ;
478 [label="gini = -0.0\nsamples = 5\nvalue = [0.0, 4.37]"] ;
474 -> 478 ;
479 [label="LargestLineLength <= 9372.0\ngini = 0.138\nsamples = 53\nvalue = [3.506, 43.697]"] ;
473 -> 479 ;
480 [label="DegitRatioInURL <= 0.017\ngini = 0.096\nsamples = 52\nvalue = [2.337, 43.697]"] ;
479 -> 480 ;
481 [label="NoOfExternalRef <= 5.5\ngini = 0.052\nsamples = 50\nvalue = [1.169, 42.823]"] ;
480 -> 481 ;
482 [label="NoOfImage <= 1.5\ngini = 0.376\nsamples = 5\nvalue = [1.169, 3.496]"] ;
481 -> 482 ;
483 [label="gini = 0.0\nsamples = 1\nvalue = [1.169, 0.0]"] ;
482 -> 483 ;
484 [label="gini = -0.0\nsamples = 4\nvalue = [0.0, 3.496]"] ;
482 -> 484 ;
485 [label="gini = 0.0\nsamples = 45\nvalue = [0.0, 39.327]"] ;
481 -> 485 ;
486 [label="URLCharProb <= 0.054\ngini = 0.49\nsamples = 2\nvalue = [1.169, 0.874]"] ;
480 -> 486 ;
487 [label="gini = 0.0\nsamples = 1\nvalue = [0.0, 0.874]"] ;
486 -> 487 ;
488 [label="gini = -0.0\nsamples = 1\nvalue = [1.169, 0.0]"] ;
486 -> 488 ;
489 [label="gini = -0.0\nsamples = 1\nvalue = [1.169, 0.0]"] ;
479 -> 489 ;
490 [label="NoOfDegitsInURL <= 1.0\ngini = 0.0\nsamples = 93\nvalue = [0.0, 81.277]"] ;
468 -> 490 ;
491 [label="gini = 0.0\nsamples = 91\nvalue = [0.0, 79.529]"] ;
490 -> 491 ;
492 [label="gini = 0.0\nsamples = 2\nvalue = [0.0, 1.748]"] ;
490 -> 492 ;
493 [label="TLDLength <= 4.0\ngini = 0.0\nsamples = 3\nvalue = [3.506, 0.0]"] ;
467 -> 493 ;
494 [label="gini = 0.0\nsamples = 2\nvalue = [2.337, 0.0]"] ;
493 -> 494 ;
495 [label="gini = 0.0\nsamples = 1\nvalue = [1.169, 0.0]"] ;
493 -> 495 ;
496 [label="NoOfSelfRef <= 12.5\ngini = 0.202\nsamples = 109\nvalue = [108.675, 13.983]"] ;
464 -> 496 ;
497 [label="LetterRatioInURL <= 0.419\ngini = 0.114\nsamples = 101\nvalue = [108.675, 6.992]"] ;
496 -> 497 ;
498 [label="URLCharProb <= 0.049\ngini = 0.499\nsamples = 11\nvalue = [5.843, 5.244]"] ;
497 -> 498 ;
499 [label="gini = 0.0\nsamples = 5\nvalue = [5.843, 0.0]"] ;
498 -> 499 ;
500 [label="gini = -0.0\nsamples = 6\nvalue = [0.0, 5.244]"] ;
498 -> 500 ;
501 [label="Bank <= 0.5\ngini = 0.033\nsamples = 90\nvalue = [102.832, 1.748]"] ;
497 -> 501 ;
502 [label="gini = 0.0\nsamples = 87\nvalue = [101.664, 0.0]"] ;
501 -> 502 ;
503 [label="LargestLineLength <= 842.0\ngini = 0.48\nsamples = 3\nvalue = [1.169, 1.748]"] ;
501 -> 503 ;
504 [label="gini = 0.0\nsamples = 1\nvalue = [1.169, 0.0]"] ;
503 -> 504 ;
505 [label="gini = 0.0\nsamples = 2\nvalue = [0.0, 1.748]"] ;
503 -> 505 ;
506 [label="TLDLength <= 2.5\ngini = 0.0\nsamples = 8\nvalue = [0.0, 6.992]"] ;
496 -> 506 ;
507 [label="gini = 0.0\nsamples = 2\nvalue = [0.0, 1.748]"] ;
506 -> 507 ;
508 [label="gini = 0.0\nsamples = 6\nvalue = [0.0, 5.244]"] ;
506 -> 508 ;
509 [label="NoOfSubDomain <= 0.5\ngini = 0.013\nsamples = 96533\nvalue = [562.072, 83944.039]"] ;
459 -> 509 ;
510 [label="gini = 0.0\nsamples = 129\nvalue = [150.743, 0.0]"] ;
509 -> 510 ;
511 [label="LineOfCode <= 156.5\ngini = 0.01\nsamples = 96404\nvalue = [411.33, 83944.039]"] ;
509 -> 511 ;
512 [label="LetterRatioInURL <= 0.595\ngini = 0.397\nsamples = 602\nvalue = [154.249, 410.754]"] ;
511 -> 512 ;
513 [label="NoOfDegitsInURL <= 0.5\ngini = 0.227\nsamples = 506\nvalue = [59.596, 397.644]"] ;
512 -> 513 ;
514 [label="LargestLineLength <= 8475.0\ngini = 0.163\nsamples = 481\nvalue = [38.562, 391.527]"] ;
513 -> 514 ;
515 [label="CharContinuationRate <= 0.862\ngini = 0.125\nsamples = 472\nvalue = [28.045, 391.527]"] ;
514 -> 515 ;
516 [label="NoOfImage <= 1.5\ngini = 0.394\nsamples = 60\nvalue = [15.191, 41.075]"] ;
515 -> 516 ;
517 [label="TLDLegitimateProb <= 0.023\ngini = 0.468\nsamples = 18\nvalue = [11.685, 6.992]"] ;
516 -> 517 ;
518 [label="gini = 0.0\nsamples = 7\nvalue = [8.18, 0.0]"] ;
517 -> 518 ;
519 [label="HasFavicon <= 0.5\ngini = 0.445\nsamples = 11\nvalue = [3.506, 6.992]"] ;
517 -> 519 ;
520 [label="gini = -0.0\nsamples = 7\nvalue = [0.0, 6.118]"] ;
519 -> 520 ;
521 [label="NoOfJS <= 11.5\ngini = 0.319\nsamples = 4\nvalue = [3.506, 0.874]"] ;
519 -> 521 ;
522 [label="NoOfCSS <= 0.5\ngini = 0.0\nsamples = 3\nvalue = [3.506, 0.0]"] ;
521 -> 522 ;
523 [label="gini = 0.0\nsamples = 2\nvalue = [2.337, 0.0]"] ;
522 -> 523 ;
524 [label="gini = 0.0\nsamples = 1\nvalue = [1.169, 0.0]"] ;
522 -> 524 ;
525 [label="gini = 0.0\nsamples = 1\nvalue = [0.0, 0.874]"] ;
521 -> 525 ;
526 [label="NoOfSelfRef <= 0.5\ngini = 0.169\nsamples = 42\nvalue = [3.506, 34.084]"] ;
516 -> 526 ;
527 [label="LargestLineLength <= 468.5\ngini = 0.48\nsamples = 9\nvalue = [3.506, 5.244]"] ;
526 -> 527 ;
528 [label="TLDLegitimateProb <= 0.281\ngini = 0.319\nsamples = 4\nvalue = [3.506, 0.874]"] ;
527 -> 528 ;
529 [label="HasFavicon <= 0.5\ngini = 0.0\nsamples = 3\nvalue = [3.506, 0.0]"] ;
528 -> 529 ;
530 [label="gini = 0.0\nsamples = 1\nvalue = [1.169, 0.0]"] ;
529 -> 530 ;
531 [label="gini = 0.0\nsamples = 2\nvalue = [2.337, 0.0]"] ;
529 -> 531 ;
532 [label="gini = 0.0\nsamples = 1\nvalue = [0.0, 0.874]"] ;
528 -> 532 ;
533 [label="gini = 0.0\nsamples = 5\nvalue = [0.0, 4.37]"] ;
527 -> 533 ;
534 [label="DomainLength <= 13.5\ngini = 0.0\nsamples = 33\nvalue = [0.0, 28.84]"] ;
526 -> 534 ;
535 [label="gini = 0.0\nsamples = 3\nvalue = [0.0, 2.622]"] ;
534 -> 535 ;
536 [label="gini = 0.0\nsamples = 30\nvalue = [0.0, 26.218]"] ;
534 -> 536 ;
537 [label="LineOfCode <= 155.5\ngini = 0.068\nsamples = 412\nvalue = [12.854, 350.451]"] ;
515 -> 537 ;
538 [label="LetterRatioInURL <= 0.554\ngini = 0.052\nsamples = 398\nvalue = [9.348, 340.838]"] ;
537 -> 538 ;
539 [label="LineOfCode <= 135.5\ngini = 0.028\nsamples = 370\nvalue = [4.674, 319.863]"] ;
538 -> 539 ;
540 [label="NoOfCSS <= 0.5\ngini = 0.088\nsamples = 115\nvalue = [4.674, 97.008]"] ;
539 -> 540 ;
541 [label="NoOfJS <= 0.5\ngini = 0.4\nsamples = 9\nvalue = [2.337, 6.118]"] ;
540 -> 541 ;
542 [label="NoOfLettersInURL <= 8.5\ngini = 0.396\nsamples = 3\nvalue = [2.337, 0.874]"] ;
541 -> 542 ;
543 [label="gini = 0.0\nsamples = 1\nvalue = [0.0, 0.874]"] ;
542 -> 543 ;
544 [label="gini = 0.0\nsamples = 2\nvalue = [2.337, 0.0]"] ;
542 -> 544 ;
545 [label="gini = 0.0\nsamples = 6\nvalue = [0.0, 5.244]"] ;
541 -> 545 ;
546 [label="LetterRatioInURL <= 0.519\ngini = 0.049\nsamples = 106\nvalue = [2.337, 90.89]"] ;
540 -> 546 ;
547 [label="gini = -0.0\nsamples = 96\nvalue = [0.0, 83.899]"] ;
546 -> 547 ;
548 [label="DomainLength <= 20.0\ngini = 0.376\nsamples = 10\nvalue = [2.337, 6.992]"] ;
546 -> 548 ;
549 [label="gini = 0.0\nsamples = 2\nvalue = [2.337, 0.0]"] ;
548 -> 549 ;
550 [label="gini = 0.0\nsamples = 8\nvalue = [0.0, 6.992]"] ;
548 -> 550 ;
551 [label="Pay <= 0.5\ngini = 0.0\nsamples = 255\nvalue = [0.0, 222.856]"] ;
539 -> 551 ;
552 [label="gini = 0.0\nsamples = 234\nvalue = [0.0, 204.503]"] ;
551 -> 552 ;
553 [label="gini = 0.0\nsamples = 21\nvalue = [0.0, 18.353]"] ;
551 -> 553 ;
554 [label="URLLength <= 29.5\ngini = 0.298\nsamples = 28\nvalue = [4.674, 20.975]"] ;
538 -> 554 ;
555 [label="gini = 0.0\nsamples = 4\nvalue = [4.674, 0.0]"] ;
554 -> 555 ;
556 [label="gini = 0.0\nsamples = 24\nvalue = [0.0, 20.975]"] ;
554 -> 556 ;
557 [label="Pay <= 0.5\ngini = 0.392\nsamples = 14\nvalue = [3.506, 9.613]"] ;
537 -> 557 ;
558 [label="gini = 0.0\nsamples = 8\nvalue = [0.0, 6.992]"] ;
557 -> 558 ;
559 [label="URLLength <= 24.5\ngini = 0.49\nsamples = 6\nvalue = [3.506, 2.622]"] ;
557 -> 559 ;
560 [label="NoOfSelfRef <= 11.0\ngini = 0.319\nsamples = 4\nvalue = [3.506, 0.874]"] ;
559 -> 560 ;
561 [label="LetterRatioInURL <= 0.466\ngini = 0.0\nsamples = 3\nvalue = [3.506, 0.0]"] ;
560 -> 561 ;
562 [label="gini = 0.0\nsamples = 1\nvalue = [1.169, 0.0]"] ;
561 -> 562 ;
563 [label="gini = 0.0\nsamples = 2\nvalue = [2.337, 0.0]"] ;
561 -> 563 ;
564 [label="gini = 0.0\nsamples = 1\nvalue = [0.0, 0.874]"] ;
560 -> 564 ;
565 [label="gini = -0.0\nsamples = 2\nvalue = [0.0, 1.748]"] ;
559 -> 565 ;
566 [label="NoOfEmptyRef <= 0.5\ngini = 0.0\nsamples = 9\nvalue = [10.517, 0.0]"] ;
514 -> 566 ;
567 [label="gini = 0.0\nsamples = 8\nvalue = [9.348, 0.0]"] ;
566 -> 567 ;
568 [label="gini = 0.0\nsamples = 1\nvalue = [1.169, 0.0]"] ;
566 -> 568 ;
569 [label="NoOfSelfRef <= 5.5\ngini = 0.349\nsamples = 25\nvalue = [21.034, 6.118]"] ;
513 -> 569 ;
570 [label="LargestLineLength <= 156.0\ngini = 0.077\nsamples = 19\nvalue = [21.034, 0.874]"] ;
569 -> 570 ;
571 [label="gini = 0.0\nsamples = 1\nvalue = [0.0, 0.874]"] ;
570 -> 571 ;
572 [label="NoOfImage <= 0.5\ngini = 0.0\nsamples = 18\nvalue = [21.034, 0.0]"] ;
570 -> 572 ;
573 [label="gini = 0.0\nsamples = 3\nvalue = [3.506, 0.0]"] ;
572 -> 573 ;
574 [label="gini = 0.0\nsamples = 15\nvalue = [17.528, 0.0]"] ;
572 -> 574 ;
575 [label="gini = -0.0\nsamples = 6\nvalue = [0.0, 5.244]"] ;
569 -> 575 ;
576 [label="NoOfImage <= 8.5\ngini = 0.214\nsamples = 96\nvalue = [94.653, 13.109]"] ;
512 -> 576 ;
577 [label="NoOfSelfRef <= 9.5\ngini = 0.099\nsamples = 87\nvalue = [94.653, 5.244]"] ;
576 -> 577 ;
578 [label="HasExternalFormSubmit <= 0.5\ngini = 0.036\nsamples = 82\nvalue = [93.484, 1.748]"] ;
577 -> 578 ;
579 [label="URLCharProb <= 0.065\ngini = 0.018\nsamples = 81\nvalue = [93.484, 0.874]"] ;
578 -> 579 ;
580 [label="gini = 0.0\nsamples = 79\nvalue = [92.315, 0.0]"] ;
579 -> 580 ;
581 [label="LetterRatioInURL <= 0.645\ngini = 0.49\nsamples = 2\nvalue = [1.169, 0.874]"] ;
579 -> 581 ;
582 [label="gini = 0.0\nsamples = 1\nvalue = [0.0, 0.874]"] ;
581 -> 582 ;
583 [label="gini = -0.0\nsamples = 1\nvalue = [1.169, 0.0]"] ;
581 -> 583 ;
584 [label="gini = 0.0\nsamples = 1\nvalue = [0.0, 0.874]"] ;
578 -> 584 ;
585 [label="TLDLength <= 2.5\ngini = 0.376\nsamples = 5\nvalue = [1.169, 3.496]"] ;
577 -> 585 ;
586 [label="gini = 0.0\nsamples = 1\nvalue = [1.169, 0.0]"] ;
585 -> 586 ;
587 [label="gini = -0.0\nsamples = 4\nvalue = [0.0, 3.496]"] ;
585 -> 587 ;
588 [label="Pay <= 0.5\ngini = 0.0\nsamples = 9\nvalue = [0.0, 7.865]"] ;
576 -> 588 ;
589 [label="gini = 0.0\nsamples = 8\nvalue = [0.0, 6.992]"] ;
588 -> 589 ;
590 [label="gini = 0.0\nsamples = 1\nvalue = [0.0, 0.874]"] ;
588 -> 590 ;
591 [label="NoOfDegitsInURL <= 5.5\ngini = 0.006\nsamples = 95802\nvalue = [257.081, 83533.285]"] ;
511 -> 591 ;
592 [label="LargestLineLength <= 246017.0\ngini = 0.005\nsamples = 95770\nvalue = [229.036, 83526.294]"] ;
591 -> 592 ;
593 [label="URLLength <= 47.5\ngini = 0.005\nsamples = 95742\nvalue = [204.496, 83520.176]"] ;
592 -> 593 ;
594 [label="LetterRatioInURL <= 0.724\ngini = 0.004\nsamples = 95702\nvalue = [182.294, 83501.823]"] ;
593 -> 594 ;
595 [label="NoOfJS <= 0.5\ngini = 0.004\nsamples = 95695\nvalue = [174.114, 83501.823]"] ;
594 -> 595 ;
596 [label="TLDLegitimateProb <= 0.0\ngini = 0.135\nsamples = 847\nvalue = [54.922, 699.155]"] ;
595 -> 596 ;
597 [label="LetterRatioInURL <= 0.49\ngini = 0.18\nsamples = 31\nvalue = [31.551, 3.496]"] ;
596 -> 597 ;
598 [label="gini = 0.0\nsamples = 4\nvalue = [0.0, 3.496]"] ;
597 -> 598 ;
599 [label="gini = -0.0\nsamples = 27\nvalue = [31.551, 0.0]"] ;
597 -> 599 ;
600 [label="LineOfCode <= 201.5\ngini = 0.063\nsamples = 816\nvalue = [23.371, 695.659]"] ;
596 -> 600 ;
601 [label="URLCharProb <= 0.052\ngini = 0.348\nsamples = 90\nvalue = [18.697, 64.672]"] ;
600 -> 601 ;
602 [label="NoOfImage <= 5.0\ngini = 0.265\nsamples = 10\nvalue = [9.348, 1.748]"] ;
601 -> 602 ;
603 [label="gini = 0.0\nsamples = 8\nvalue = [9.348, 0.0]"] ;
602 -> 603 ;
604 [label="gini = -0.0\nsamples = 2\nvalue = [0.0, 1.748]"] ;
602 -> 604 ;
605 [label="NoOfSelfRef <= 0.5\ngini = 0.225\nsamples = 80\nvalue = [9.348, 62.924]"] ;
601 -> 605 ;
606 [label="NoOfImage <= 3.5\ngini = 0.48\nsamples = 21\nvalue = [8.18, 12.235]"] ;
605 -> 606 ;
607 [label="NoOfExternalRef <= 19.0\ngini = 0.29\nsamples = 9\nvalue = [8.18, 1.748]"] ;
606 -> 607 ;
608 [label="NoOfiFrame <= 0.5\ngini = 0.0\nsamples = 7\nvalue = [8.18, 0.0]"] ;
607 -> 608 ;
609 [label="gini = 0.0\nsamples = 4\nvalue = [4.674, 0.0]"] ;
608 -> 609 ;
610 [label="gini = 0.0\nsamples = 3\nvalue = [3.506, 0.0]"] ;
608 -> 610 ;
611 [label="gini = -0.0\nsamples = 2\nvalue = [0.0, 1.748]"] ;
607 -> 611 ;
612 [label="gini = -0.0\nsamples = 12\nvalue = [0.0, 10.487]"] ;
606 -> 612 ;
613 [label="LetterRatioInURL <= 0.561\ngini = 0.044\nsamples = 59\nvalue = [1.169, 50.689]"] ;
605 -> 613 ;
614 [label="NoOfPopup <= 0.5\ngini = 0.0\nsamples = 54\nvalue = [0.0, 47.193]"] ;
613 -> 614 ;
615 [label="gini = 0.0\nsamples = 50\nvalue = [0.0, 43.697]"] ;
614 -> 615 ;
616 [label="gini = 0.0\nsamples = 4\nvalue = [0.0, 3.496]"] ;
614 -> 616 ;
617 [label="NoOfExternalRef <= 9.5\ngini = 0.376\nsamples = 5\nvalue = [1.169, 3.496]"] ;
613 -> 617 ;
618 [label="gini = 0.0\nsamples = 1\nvalue = [1.169, 0.0]"] ;
617 -> 618 ;
619 [label="gini = -0.0\nsamples = 4\nvalue = [0.0, 3.496]"] ;
617 -> 619 ;
620 [label="LargestLineLength <= 34896.0\ngini = 0.015\nsamples = 726\nvalue = [4.674, 630.987]"] ;
600 -> 620 ;
621 [label="LargestLineLength <= 8766.0\ngini = 0.007\nsamples = 722\nvalue = [2.337, 629.239]"] ;
620 -> 621 ;
622 [label="TLDLegitimateProb <= 0.002\ngini = 0.004\nsamples = 711\nvalue = [1.169, 620.5]"] ;
621 -> 622 ;
623 [label="NoOfExternalRef <= 6.5\ngini = 0.135\nsamples = 18\nvalue = [1.169, 14.857]"] ;
622 -> 623 ;
624 [label="gini = 0.0\nsamples = 1\nvalue = [1.169, 0.0]"] ;
623 -> 624 ;
625 [label="gini = 0.0\nsamples = 17\nvalue = [0.0, 14.857]"] ;
623 -> 625 ;
626 [label="gini = 0.0\nsamples = 693\nvalue = [0.0, 605.643]"] ;
622 -> 626 ;
627 [label="NoOfImage <= 3.5\ngini = 0.208\nsamples = 11\nvalue = [1.169, 8.739]"] ;
621 -> 627 ;
628 [label="gini = 0.0\nsamples = 1\nvalue = [1.169, 0.0]"] ;
627 -> 628 ;
629 [label="gini = 0.0\nsamples = 10\nvalue = [0.0, 8.739]"] ;
627 -> 629 ;
630 [label="URLLength <= 26.5\ngini = 0.49\nsamples = 4\nvalue = [2.337, 1.748]"] ;
620 -> 630 ;
631 [label="gini = 0.0\nsamples = 2\nvalue = [0.0, 1.748]"] ;
630 -> 631 ;
632 [label="gini = -0.0\nsamples = 2\nvalue = [2.337, 0.0]"] ;
630 -> 632 ;
633 [label="NoOfImage <= 0.5\ngini = 0.003\nsamples = 94848\nvalue = [119.192, 82802.668]"] ;
595 -> 633 ;
634 [label="NoOfSelfRef <= 0.5\ngini = 0.1\nsamples = 750\nvalue = [35.056, 629.239]"] ;
633 -> 634 ;
635 [label="DomainLength <= 25.5\ngini = 0.5\nsamples = 56\nvalue = [28.045, 27.966]"] ;
634 -> 635 ;
636 [label="LargestLineLength <= 7161.5\ngini = 0.397\nsamples = 41\nvalue = [10.517, 27.966]"] ;
635 -> 636 ;
637 [label="LineOfCode <= 174.5\ngini = 0.203\nsamples = 34\nvalue = [3.506, 27.092]"] ;
636 -> 637 ;
638 [label="gini = 0.0\nsamples = 3\nvalue = [3.506, 0.0]"] ;
637 -> 638 ;
639 [label="gini = 0.0\nsamples = 31\nvalue = [0.0, 27.092]"] ;
637 -> 639 ;
640 [label="LineOfCode <= 3972.5\ngini = 0.197\nsamples = 7\nvalue = [7.011, 0.874]"] ;
636 -> 640 ;
641 [label="gini = 0.0\nsamples = 6\nvalue = [7.011, 0.0]"] ;
640 -> 641 ;
642 [label="gini = -0.0\nsamples = 1\nvalue = [0.0, 0.874]"] ;
640 -> 642 ;
643 [label="gini = -0.0\nsamples = 15\nvalue = [17.528, 0.0]"] ;
635 -> 643 ;
644 [label="LargestLineLength <= 128.0\ngini = 0.023\nsamples = 694\nvalue = [7.011, 601.273]"] ;
634 -> 644 ;
645 [label="gini = 0.0\nsamples = 5\nvalue = [5.843, 0.0]"] ;
644 -> 645 ;
646 [label="URLLength <= 17.5\ngini = 0.004\nsamples = 689\nvalue = [1.169, 601.273]"] ;
644 -> 646 ;
647 [label="DomainLength <= 10.5\ngini = 0.48\nsamples = 3\nvalue = [1.169, 1.748]"] ;
646 -> 647 ;
648 [label="gini = 0.0\nsamples = 2\nvalue = [0.0, 1.748]"] ;
647 -> 648 ;
649 [label="gini = 0.0\nsamples = 1\nvalue = [1.169, 0.0]"] ;
647 -> 649 ;
650 [label="gini = 0.0\nsamples = 686\nvalue = [0.0, 599.525]"] ;
646 -> 650 ;
651 [label="LineOfCode <= 189.5\ngini = 0.002\nsamples = 94098\nvalue = [84.136, 82173.429]"] ;
633 -> 651 ;
652 [label="LargestLineLength <= 7340.5\ngini = 0.083\nsamples = 673\nvalue = [25.708, 568.937]"] ;
651 -> 652 ;
653 [label="TLDLength <= 5.5\ngini = 0.047\nsamples = 660\nvalue = [14.023, 566.316]"] ;
652 -> 653 ;
654 [label="NoOfCSS <= 0.5\ngini = 0.036\nsamples = 656\nvalue = [10.517, 565.442]"] ;
653 -> 654 ;
655 [label="Pay <= 0.5\ngini = 0.312\nsamples = 46\nvalue = [8.18, 34.084]"] ;
654 -> 655 ;
656 [label="LetterRatioInURL <= 0.554\ngini = 0.071\nsamples = 36\nvalue = [1.169, 30.588]"] ;
655 -> 656 ;
657 [label="gini = 0.0\nsamples = 32\nvalue = [0.0, 27.966]"] ;
656 -> 657 ;
658 [label="URLLength <= 29.0\ngini = 0.426\nsamples = 4\nvalue = [1.169, 2.622]"] ;
656 -> 658 ;
659 [label="gini = 0.0\nsamples = 1\nvalue = [1.169, 0.0]"] ;
658 -> 659 ;
660 [label="gini = 0.0\nsamples = 3\nvalue = [0.0, 2.622]"] ;
658 -> 660 ;
661 [label="LargestLineLength <= 841.5\ngini = 0.444\nsamples = 10\nvalue = [7.011, 3.496]"] ;
655 -> 661 ;
662 [label="gini = 0.0\nsamples = 4\nvalue = [0.0, 3.496]"] ;
661 -> 662 ;
663 [label="gini = -0.0\nsamples = 6\nvalue = [7.011, 0.0]"] ;
661 -> 663 ;
664 [label="DomainLength <= 27.5\ngini = 0.009\nsamples = 610\nvalue = [2.337, 531.358]"] ;
654 -> 664 ;
665 [label="TLDLegitimateProb <= 0.002\ngini = 0.004\nsamples = 596\nvalue = [1.169, 519.996]"] ;
664 -> 665 ;
666 [label="TLDLegitimateProb <= 0.002\ngini = 0.077\nsamples = 33\nvalue = [1.169, 27.966]"] ;
665 -> 666 ;
667 [label="gini = 0.0\nsamples = 32\nvalue = [0.0, 27.966]"] ;
666 -> 667 ;
668 [label="gini = 0.0\nsamples = 1\nvalue = [1.169, 0.0]"] ;
666 -> 668 ;
669 [label="gini = 0.0\nsamples = 563\nvalue = [0.0, 492.03]"] ;
665 -> 669 ;
670 [label="URLLength <= 34.5\ngini = 0.169\nsamples = 14\nvalue = [1.169, 11.361]"] ;
664 -> 670 ;
671 [label="gini = 0.0\nsamples = 1\nvalue = [1.169, 0.0]"] ;
670 -> 671 ;
672 [label="gini = 0.0\nsamples = 13\nvalue = [0.0, 11.361]"] ;
670 -> 672 ;
673 [label="LargestLineLength <= 1124.5\ngini = 0.319\nsamples = 4\nvalue = [3.506, 0.874]"] ;
653 -> 673 ;
674 [label="LetterRatioInURL <= 0.547\ngini = 0.0\nsamples = 3\nvalue = [3.506, 0.0]"] ;
673 -> 674 ;
675 [label="gini = 0.0\nsamples = 1\nvalue = [1.169, 0.0]"] ;
674 -> 675 ;
676 [label="gini = 0.0\nsamples = 2\nvalue = [2.337, 0.0]"] ;
674 -> 676 ;
677 [label="gini = 0.0\nsamples = 1\nvalue = [0.0, 0.874]"] ;
673 -> 677 ;
678 [label="NoOfImage <= 13.0\ngini = 0.299\nsamples = 13\nvalue = [11.685, 2.622]"] ;
652 -> 678 ;
679 [label="gini = 0.0\nsamples = 10\nvalue = [11.685, 0.0]"] ;
678 -> 679 ;
680 [label="gini = -0.0\nsamples = 3\nvalue = [0.0, 2.622]"] ;
678 -> 680 ;
681 [label="CharContinuationRate <= 0.346\ngini = 0.001\nsamples = 93425\nvalue = [58.427, 81604.491]"] ;
651 -> 681 ;
682 [label="DomainLength <= 29.5\ngini = 0.48\nsamples = 3\nvalue = [1.169, 1.748]"] ;
681 -> 682 ;
683 [label="gini = 0.0\nsamples = 2\nvalue = [0.0, 1.748]"] ;
682 -> 683 ;
684 [label="gini = 0.0\nsamples = 1\nvalue = [1.169, 0.0]"] ;
682 -> 684 ;
685 [label="LineOfCode <= 335.5\ngini = 0.001\nsamples = 93422\nvalue = [57.259, 81602.743]"] ;
681 -> 685 ;
686 [label="LargestLineLength <= 14872.0\ngini = 0.018\nsamples = 5297\nvalue = [43.236, 4596.944]"] ;
685 -> 686 ;
687 [label="LetterRatioInURL <= 0.69\ngini = 0.006\nsamples = 5272\nvalue = [14.023, 4596.944]"] ;
686 -> 687 ;
688 [label="NoOfEmptyRef <= 43.0\ngini = 0.004\nsamples = 5262\nvalue = [9.348, 4591.7]"] ;
687 -> 688 ;
689 [label="HasTitle <= 0.5\ngini = 0.004\nsamples = 5261\nvalue = [8.18, 4591.7]"] ;
688 -> 689 ;
690 [label="CharContinuationRate <= 0.774\ngini = 0.4\nsamples = 9\nvalue = [2.337, 6.118]"] ;
689 -> 690 ;
691 [label="gini = 0.0\nsamples = 2\nvalue = [2.337, 0.0]"] ;
690 -> 691 ;
692 [label="gini = 0.0\nsamples = 7\nvalue = [0.0, 6.118]"] ;
690 -> 692 ;
693 [label="URLCharProb <= 0.073\ngini = 0.003\nsamples = 5252\nvalue = [5.843, 4585.583]"] ;
689 -> 693 ;
694 [label="LargestLineLength <= 9636.5\ngini = 0.002\nsamples = 5154\nvalue = [3.506, 4501.684]"] ;
693 -> 694 ;
695 [label="LetterRatioInURL <= 0.636\ngini = 0.001\nsamples = 5126\nvalue = [2.337, 4478.087]"] ;
694 -> 695 ;
696 [label="TLDLegitimateProb <= 0.001\ngini = 0.001\nsamples = 5011\nvalue = [1.169, 4378.458]"] ;
695 -> 696 ;
697 [label="TLDLegitimateProb <= 0.001\ngini = 0.016\nsamples = 164\nvalue = [1.169, 142.453]"] ;
696 -> 697 ;
698 [label="gini = 0.0\nsamples = 159\nvalue = [0.0, 138.957]"] ;
697 -> 698 ;
699 [label="LineOfCode <= 254.0\ngini = 0.376\nsamples = 5\nvalue = [1.169, 3.496]"] ;
697 -> 699 ;
700 [label="gini = 0.0\nsamples = 1\nvalue = [1.169, 0.0]"] ;
699 -> 700 ;
701 [label="gini = -0.0\nsamples = 4\nvalue = [0.0, 3.496]"] ;
699 -> 701 ;
702 [label="gini = 0.0\nsamples = 4847\nvalue = [0.0, 4236.005]"] ;
696 -> 702 ;
703 [label="DomainLength <= 28.5\ngini = 0.023\nsamples = 115\nvalue = [1.169, 99.63]"] ;
695 -> 703 ;
704 [label="gini = 0.0\nsamples = 1\nvalue = [1.169, 0.0]"] ;
703 -> 704 ;
705 [label="gini = 0.0\nsamples = 114\nvalue = [0.0, 99.63]"] ;
703 -> 705 ;
706 [label="NoOfSelfRef <= 16.5\ngini = 0.09\nsamples = 28\nvalue = [1.169, 23.596]"] ;
694 -> 706 ;
707 [label="gini = 0.0\nsamples = 1\nvalue = [1.169, 0.0]"] ;
706 -> 707 ;
708 [label="gini = 0.0\nsamples = 27\nvalue = [0.0, 23.596]"] ;
706 -> 708 ;
709 [label="LineOfCode <= 200.5\ngini = 0.053\nsamples = 98\nvalue = [2.337, 83.899]"] ;
693 -> 709 ;
710 [label="TLDLegitimateProb <= 0.301\ngini = 0.49\nsamples = 4\nvalue = [2.337, 1.748]"] ;
709 -> 710 ;
711 [label="gini = 0.0\nsamples = 2\nvalue = [0.0, 1.748]"] ;
710 -> 711 ;
712 [label="gini = -0.0\nsamples = 2\nvalue = [2.337, 0.0]"] ;
710 -> 712 ;
713 [label="gini = 0.0\nsamples = 94\nvalue = [0.0, 82.151]"] ;
709 -> 713 ;
714 [label="gini = 0.0\nsamples = 1\nvalue = [1.169, 0.0]"] ;
688 -> 714 ;
715 [label="NoOfLettersInURL <= 30.5\ngini = 0.498\nsamples = 10\nvalue = [4.674, 5.244]"] ;
687 -> 715 ;
716 [label="NoOfJS <= 8.5\ngini = 0.265\nsamples = 5\nvalue = [4.674, 0.874]"] ;
715 -> 716 ;
717 [label="gini = 0.0\nsamples = 4\nvalue = [4.674, 0.0]"] ;
716 -> 717 ;
718 [label="gini = -0.0\nsamples = 1\nvalue = [0.0, 0.874]"] ;
716 -> 718 ;
719 [label="gini = -0.0\nsamples = 5\nvalue = [0.0, 4.37]"] ;
715 -> 719 ;
720 [label="NoOfExternalRef <= 8.0\ngini = 0.0\nsamples = 25\nvalue = [29.214, 0.0]"] ;
686 -> 720 ;
721 [label="gini = 0.0\nsamples = 3\nvalue = [3.506, 0.0]"] ;
720 -> 721 ;
722 [label="gini = 0.0\nsamples = 22\nvalue = [25.708, 0.0]"] ;
720 -> 722 ;
723 [label="LargestLineLength <= 94589.0\ngini = 0.0\nsamples = 88125\nvalue = [14.023, 77005.8]"] ;
685 -> 723 ;
724 [label="LargestLineLength <= 53130.0\ngini = 0.0\nsamples = 87823\nvalue = [7.011, 76747.112]"] ;
723 -> 724 ;
725 [label="NoOfDegitsInURL <= 3.5\ngini = 0.0\nsamples = 87049\nvalue = [4.674, 76072.428]"] ;
724 -> 725 ;
726 [label="LineOfCode <= 347.5\ngini = 0.0\nsamples = 86851\nvalue = [3.506, 75900.261]"] ;
725 -> 726 ;
727 [label="LargestLineLength <= 15187.5\ngini = 0.005\nsamples = 556\nvalue = [1.169, 485.039]"] ;
726 -> 727 ;
728 [label="gini = 0.0\nsamples = 555\nvalue = [0.0, 485.039]"] ;
727 -> 728 ;
729 [label="gini = 0.0\nsamples = 1\nvalue = [1.169, 0.0]"] ;
727 -> 729 ;
730 [label="NoOfJS <= 71.5\ngini = 0.0\nsamples = 86295\nvalue = [2.337, 75415.222]"] ;
726 -> 730 ;
731 [label="NoOfImage <= 2.5\ngini = 0.0\nsamples = 85235\nvalue = [1.169, 74489.716]"] ;
730 -> 731 ;
732 [label="NoOfSelfRef <= 0.5\ngini = 0.001\nsamples = 1797\nvalue = [1.169, 1569.603]"] ;
731 -> 732 ;
733 [label="LargestLineLength <= 8045.5\ngini = 0.041\nsamples = 64\nvalue = [1.169, 55.058]"] ;
732 -> 733 ;
734 [label="URLLength <= 19.5\ngini = 0.0\nsamples = 61\nvalue = [0.0, 53.311]"] ;
733 -> 734 ;
735 [label="gini = 0.0\nsamples = 1\nvalue = [0.0, 0.874]"] ;
734 -> 735 ;
736 [label="gini = 0.0\nsamples = 60\nvalue = [0.0, 52.437]"] ;
734 -> 736 ;
737 [label="NoOfImage <= 1.5\ngini = 0.48\nsamples = 3\nvalue = [1.169, 1.748]"] ;
733 -> 737 ;
738 [label="gini = 0.0\nsamples = 2\nvalue = [0.0, 1.748]"] ;
737 -> 738 ;
739 [label="gini = 0.0\nsamples = 1\nvalue = [1.169, 0.0]"] ;
737 -> 739 ;
740 [label="gini = 0.0\nsamples = 1733\nvalue = [0.0, 1514.544]"] ;
732 -> 740 ;
741 [label="gini = 0.0\nsamples = 83438\nvalue = [0.0, 72920.113]"] ;
731 -> 741 ;
742 [label="NoOfSelfRef <= 7.0\ngini = 0.003\nsamples = 1060\nvalue = [1.169, 925.506]"] ;
730 -> 742 ;
743 [label="NoOfJS <= 72.5\ngini = 0.1\nsamples = 25\nvalue = [1.169, 20.975]"] ;
742 -> 743 ;
744 [label="gini = 0.0\nsamples = 1\nvalue = [1.169, 0.0]"] ;
743 -> 744 ;
745 [label="gini = 0.0\nsamples = 24\nvalue = [0.0, 20.975]"] ;
743 -> 745 ;
746 [label="gini = 0.0\nsamples = 1035\nvalue = [0.0, 904.532]"] ;
742 -> 746 ;
747 [label="LargestLineLength <= 21920.5\ngini = 0.013\nsamples = 198\nvalue = [1.169, 172.167]"] ;
725 -> 747 ;
748 [label="gini = 0.0\nsamples = 189\nvalue = [0.0, 165.175]"] ;
747 -> 748 ;
749 [label="NoOfJS <= 9.5\ngini = 0.245\nsamples = 9\nvalue = [1.169, 6.992]"] ;
747 -> 749 ;
750 [label="gini = 0.0\nsamples = 1\nvalue = [1.169, 0.0]"] ;
749 -> 750 ;
751 [label="gini = 0.0\nsamples = 8\nvalue = [0.0, 6.992]"] ;
749 -> 751 ;
752 [label="LineOfCode <= 1160.0\ngini = 0.007\nsamples = 774\nvalue = [2.337, 674.685]"] ;
724 -> 752 ;
753 [label="gini = 0.0\nsamples = 2\nvalue = [2.337, 0.0]"] ;
752 -> 753 ;
754 [label="gini = 0.0\nsamples = 772\nvalue = [0.0, 674.685]"] ;
752 -> 754 ;
755 [label="LineOfCode <= 2329.5\ngini = 0.051\nsamples = 302\nvalue = [7.011, 258.687]"] ;
723 -> 755 ;
756 [label="gini = 0.0\nsamples = 6\nvalue = [7.011, 0.0]"] ;
755 -> 756 ;
757 [label="gini = 0.0\nsamples = 296\nvalue = [0.0, 258.687]"] ;
755 -> 757 ;
758 [label="LineOfCode <= 193.0\ngini = 0.0\nsamples = 7\nvalue = [8.18, 0.0]"] ;
594 -> 758 ;
759 [label="gini = 0.0\nsamples = 1\nvalue = [1.169, 0.0]"] ;
758 -> 759 ;
760 [label="gini = 0.0\nsamples = 6\nvalue = [7.011, 0.0]"] ;
758 -> 760 ;
761 [label="NoOfImage <= 6.5\ngini = 0.495\nsamples = 40\nvalue = [22.202, 18.353]"] ;
593 -> 761 ;
762 [label="NoOfSelfRef <= 33.5\ngini = 0.135\nsamples = 21\nvalue = [22.202, 1.748]"] ;
761 -> 762 ;
763 [label="gini = 0.0\nsamples = 19\nvalue = [22.202, 0.0]"] ;
762 -> 763 ;
764 [label="gini = -0.0\nsamples = 2\nvalue = [0.0, 1.748]"] ;
762 -> 764 ;
765 [label="NoOfImage <= 8.5\ngini = 0.0\nsamples = 19\nvalue = [0.0, 16.605]"] ;
761 -> 765 ;
766 [label="gini = 0.0\nsamples = 1\nvalue = [0.0, 0.874]"] ;
765 -> 766 ;
767 [label="gini = 0.0\nsamples = 18\nvalue = [0.0, 15.731]"] ;
765 -> 767 ;
768 [label="NoOfImage <= 86.5\ngini = 0.319\nsamples = 28\nvalue = [24.54, 6.118]"] ;
592 -> 768 ;
769 [label="gini = 0.0\nsamples = 21\nvalue = [24.54, 0.0]"] ;
768 -> 769 ;
770 [label="gini = -0.0\nsamples = 7\nvalue = [0.0, 6.118]"] ;
768 -> 770 ;
771 [label="NoOfExternalRef <= 15.5\ngini = 0.319\nsamples = 32\nvalue = [28.045, 6.992]"] ;
591 -> 771 ;
772 [label="URLLength <= 25.5\ngini = 0.11\nsamples = 26\nvalue = [28.045, 1.748]"] ;
771 -> 772 ;
773 [label="DegitRatioInURL <= 0.428\ngini = 0.48\nsamples = 3\nvalue = [1.169, 1.748]"] ;
772 -> 773 ;
774 [label="gini = 0.0\nsamples = 2\nvalue = [0.0, 1.748]"] ;
773 -> 774 ;
775 [label="gini = 0.0\nsamples = 1\nvalue = [1.169, 0.0]"] ;
773 -> 775 ;
776 [label="gini = 0.0\nsamples = 23\nvalue = [26.877, 0.0]"] ;
772 -> 776 ;
777 [label="NoOfSelfRef <= 5.5\ngini = 0.0\nsamples = 6\nvalue = [0.0, 5.244]"] ;
771 -> 777 ;
778 [label="gini = 0.0\nsamples = 1\nvalue = [0.0, 0.874]"] ;
777 -> 778 ;
779 [label="gini = 0.0\nsamples = 5\nvalue = [0.0, 4.37]"] ;
777 -> 779 ;
780 [label="NoOfSelfRef <= 30.5\ngini = 0.254\nsamples = 1392\nvalue = [1318.124, 230.721]"] ;
458 -> 780 ;
781 [label="NoOfImage <= 22.5\ngini = 0.068\nsamples = 1161\nvalue = [1293.585, 47.193]"] ;
780 -> 781 ;
782 [label="NoOfImage <= 5.5\ngini = 0.044\nsamples = 1129\nvalue = [1279.562, 29.714]"] ;
781 -> 782 ;
783 [label="NoOfLettersInURL <= 18.5\ngini = 0.01\nsamples = 932\nvalue = [1082.077, 5.244]"] ;
782 -> 783 ;
784 [label="CharContinuationRate <= 0.348\ngini = 0.113\nsamples = 51\nvalue = [54.922, 3.496]"] ;
783 -> 784 ;
785 [label="gini = 0.0\nsamples = 2\nvalue = [0.0, 1.748]"] ;
784 -> 785 ;
786 [label="NoOfExternalRef <= 20.0\ngini = 0.06\nsamples = 49\nvalue = [54.922, 1.748]"] ;
784 -> 786 ;
787 [label="NoOfCSS <= 14.5\ngini = 0.031\nsamples = 48\nvalue = [54.922, 0.874]"] ;
786 -> 787 ;
788 [label="gini = 0.0\nsamples = 47\nvalue = [54.922, 0.0]"] ;
787 -> 788 ;
789 [label="gini = 0.0\nsamples = 1\nvalue = [0.0, 0.874]"] ;
787 -> 789 ;
790 [label="gini = 0.0\nsamples = 1\nvalue = [0.0, 0.874]"] ;
786 -> 790 ;
791 [label="NoOfExternalRef <= 67.5\ngini = 0.003\nsamples = 881\nvalue = [1027.155, 1.748]"] ;
783 -> 791 ;
792 [label="URLCharProb <= 0.064\ngini = 0.002\nsamples = 876\nvalue = [1022.481, 0.874]"] ;
791 -> 792 ;
793 [label="gini = 0.0\nsamples = 861\nvalue = [1006.121, 0.0]"] ;
792 -> 793 ;
794 [label="DomainLength <= 33.5\ngini = 0.096\nsamples = 15\nvalue = [16.36, 0.874]"] ;
792 -> 794 ;
795 [label="NoOfJS <= 0.5\ngini = 0.0\nsamples = 14\nvalue = [16.36, 0.0]"] ;
794 -> 795 ;
796 [label="gini = 0.0\nsamples = 1\nvalue = [1.169, 0.0]"] ;
795 -> 796 ;
797 [label="gini = 0.0\nsamples = 13\nvalue = [15.191, 0.0]"] ;
795 -> 797 ;
798 [label="gini = -0.0\nsamples = 1\nvalue = [0.0, 0.874]"] ;
794 -> 798 ;
799 [label="NoOfSelfRedirect <= 0.5\ngini = 0.265\nsamples = 5\nvalue = [4.674, 0.874]"] ;
791 -> 799 ;
800 [label="gini = 0.0\nsamples = 4\nvalue = [4.674, 0.0]"] ;
799 -> 800 ;
801 [label="gini = -0.0\nsamples = 1\nvalue = [0.0, 0.874]"] ;
799 -> 801 ;
802 [label="NoOfDegitsInURL <= 0.5\ngini = 0.196\nsamples = 197\nvalue = [197.485, 24.47]"] ;
782 -> 802 ;
803 [label="LetterRatioInURL <= 0.651\ngini = 0.492\nsamples = 55\nvalue = [31.551, 24.47]"] ;
802 -> 803 ;
804 [label="CharContinuationRate <= 0.544\ngini = 0.238\nsamples = 28\nvalue = [3.506, 21.849]"] ;
803 -> 804 ;
805 [label="gini = 0.0\nsamples = 25\nvalue = [0.0, 21.849]"] ;
804 -> 805 ;
806 [label="NoOfCSS <= 6.5\ngini = 0.0\nsamples = 3\nvalue = [3.506, 0.0]"] ;
804 -> 806 ;
807 [label="gini = 0.0\nsamples = 1\nvalue = [1.169, 0.0]"] ;
806 -> 807 ;
808 [label="gini = 0.0\nsamples = 2\nvalue = [2.337, 0.0]"] ;
806 -> 808 ;
809 [label="DomainLength <= 39.5\ngini = 0.156\nsamples = 27\nvalue = [28.045, 2.622]"] ;
803 -> 809 ;
810 [label="gini = 0.0\nsamples = 24\nvalue = [28.045, 0.0]"] ;
809 -> 810 ;
811 [label="gini = -0.0\nsamples = 3\nvalue = [0.0, 2.622]"] ;
809 -> 811 ;
812 [label="NoOfPopup <= 0.5\ngini = 0.0\nsamples = 142\nvalue = [165.934, 0.0]"] ;
802 -> 812 ;
813 [label="gini = 0.0\nsamples = 137\nvalue = [160.091, 0.0]"] ;
812 -> 813 ;
814 [label="gini = 0.0\nsamples = 5\nvalue = [5.843, 0.0]"] ;
812 -> 814 ;
815 [label="URLLength <= 54.5\ngini = 0.494\nsamples = 32\nvalue = [14.023, 17.479]"] ;
781 -> 815 ;
816 [label="gini = -0.0\nsamples = 20\nvalue = [0.0, 17.479]"] ;
815 -> 816 ;
817 [label="gini = 0.0\nsamples = 12\nvalue = [14.023, 0.0]"] ;
815 -> 817 ;
818 [label="CharContinuationRate <= 0.71\ngini = 0.208\nsamples = 231\nvalue = [24.54, 183.528]"] ;
780 -> 818 ;
819 [label="LetterRatioInURL <= 0.119\ngini = 0.013\nsamples = 211\nvalue = [1.169, 183.528]"] ;
818 -> 819 ;
820 [label="gini = 0.0\nsamples = 1\nvalue = [1.169, 0.0]"] ;
819 -> 820 ;
821 [label="gini = 0.0\nsamples = 210\nvalue = [0.0, 183.528]"] ;
819 -> 821 ;
822 [label="Bank <= 0.5\ngini = 0.0\nsamples = 20\nvalue = [23.371, 0.0]"] ;
818 -> 822 ;
823 [label="gini = 0.0\nsamples = 16\nvalue = [18.697, 0.0]"] ;
822 -> 823 ;
824 [label="gini = 0.0\nsamples = 4\nvalue = [4.674, 0.0]"] ;
822 -> 824 ;
}